{"learner":{"attributes":{"scikit_learn":"{\"_estimator_type\": \"regressor\"}"},"feature_names":[],"feature_types":[],"gradient_booster":{"model":{"gbtree_model_param":{"num_parallel_tree":"1","num_trees":"100"},"iteration_indptr":[0,1,2,3,4,5,6,7,8,9,10,11,12,13,14,15,16,17,18,19,20,21,22,23,24,25,26,27,28,29,30,31,32,33,34,35,36,37,38,39,40,41,42,43,44,45,46,47,48,49,50,51,52,53,54,55,56,57,58,59,60,61,62,63,64,65,66,67,68,69,70,71,72,73,74,75,76,77,78,79,80,81,82,83,84,85,86,87,88,89,90,91,92,93,94,95,96,97,98,99,100],"tree_info":[0,0,0,0,0,0,0,0,0,0,0,0,0,0,0,0,0,0,0,0,0,0,0,0,0,0,0,0,0,0,0,0,0,0,0,0,0,0,0,0,0,0,0,0,0,0,0,0,0,0,0,0,0,0,0,0,0,0,0,0,0,0,0,0,0,0,0,0,0,0,0,0,0,0,0,0,0,0,0,0,0,0,0,0,0,0,0,0,0,0,0,0,0,0,0,0,0,0,0,0],"trees":[{"base_weights":[-6.350186E-5,-2.4325232E2,6.8187244E2,-2.9805103E2,1.3397897E2,4.7545035E2,1.0592228E3,-3.9116296E2,-2.1339836E2,-2.068552E0,1.6755328E2,2.964951E2,5.478633E2,8.27539E1,1.1274227E2,-4.4649548E1,-3.5228433E2,-2.473195E2,-1.591532E2,-6.2328095E0,2.2218425E0,5.205176E0,1.7007372E2,2.3356558E1,3.3759808E1,4.923664E1,6.859396E1,-3.58921E1,-2.6265537E1,-2.9008015E1,-2.235974E1,-1.7754143E1,-1.3707123E1,-1.755426E0,-2.5529087E-1,1.3256497E1,1.7942713E1],"categories":[],"categories_nodes":[],"categories_segments":[],"categories_sizes":[],"default_left":[0,0,0,0,0,0,0,0,0,0,0,0,0,0,0,0,0,0,0,0,0,0,0,0,0,0,0,0,0,0,0,0,0,0,0,0,0],"id":0,"left_children":[1,3,5,7,9,11,13,15,17,19,21,23,25,-1,-1,-1,27,29,31,33,-1,-1,35,-1,-1,-1,-1,-1,-1,-1,-1,-1,-1,-1,-1,-1,-1],"loss_changes":[1.6022754E8,1.4758248E7,1.9281328E7,4.819232E6,4.1600738E5,1.9887E6,4.7328E5,4.77328E5,5.64179E5,2.0600903E3,1.239875E4,5.0478E4,5.58816E5,0E0,0E0,0E0,1.1612E4,1.38012E5,2.804475E4,6.634364E2,0E0,0E0,1.123375E3,0E0,0E0,0E0,0E0,0E0,0E0,0E0,0E0,0E0,0E0,0E0,0E0,0E0,0E0],"parents":[2147483647,0,0,1,1,2,2,3,3,4,4,5,5,6,6,7,7,8,8,9,9,10,10,11,11,12,12,16,16,17,17,18,18,19,19,22,22],"right_children":[2,4,6,8,10,12,14,16,18,20,22,24,26,-1,-1,-1,28,30,32,34,-1,-1,36,-1,-1,-1,-1,-1,-1,-1,-1,-1,-1,-1,-1,-1,-1],"split_conditions":[2.346516E3,2.036078E3,2.808398E3,1.8603116E3,2.16935E3,2.537545E3,3.05889E3,1.7245629E3,2.0288295E3,2.0835117E3,2.2387292E3,2.41369E3,2.7133682E3,8.27539E1,1.1274227E2,-4.4649548E1,6.894365E1,3.813747E1,1.9659778E3,2.05563E3,2.2218425E0,5.205176E0,4.3998627E1,2.3356558E1,3.3759808E1,4.923664E1,6.859396E1,-3.58921E1,-2.6265537E1,-2.9008015E1,-2.235974E1,-1.7754143E1,-1.3707123E1,-1.755426E0,-2.5529087E-1,1.3256497E1,1.7942713E1],"split_indices":[1,1,1,2,0,0,0,8,7,8,7,0,2,0,0,0,3,3,8,0,0,0,3,0,0,0,0,0,0,0,0,0,0,0,0,0,0],"split_type":[0,0,0,0,0,0,0,0,0,0,0,0,0,0,0,0,0,0,0,0,0,0,0,0,0,0,0,0,0,0,0,0,0,0,0,0,0],"sum_hessian":[9.64E2,7.11E2,2.53E2,6.21E2,9E1,1.65E2,8.8E1,2.94E2,3.27E2,1.8E1,7.2E1,4.9E1,1.16E2,2.3E1,6.5E1,1.17E2,1.77E2,1.99E2,1.28E2,1.6E1,2E0,2E0,7E1,2.2E1,2.7E1,8.6E1,3E1,1.62E2,1.5E1,6.7E1,1.32E2,6.6E1,6.2E1,3E0,1.3E1,1.7E1,5.3E1],"tree_param":{"num_deleted":"0","num_feature":"10","num_nodes":"37","size_leaf_vector":"1"}},{"base_weights":[2.2526337E-1,-2.1914201E2,6.151437E2,-2.685508E2,1.2098349E2,4.289593E2,9.554972E2,-3.4582294E2,-1.8552794E2,-1.8505474E0,1.5129668E2,2.5813538E2,4.9035547E2,7.482332E1,1.0163887E2,-3.922137E2,-3.023099E2,-2.1444232E2,-1.4110966E2,-5.7277546E0,2.0737143E0,7.0343018E0,1.5497018E2,2.1122463E1,2.9233585E1,4.409528E1,6.195584E1,-4.446896E1,-3.6813484E1,-3.1489704E1,-2.4051184E1,-2.482231E1,-1.9812435E1,-1.5743103E1,-1.2277558E1,-1.6237732E0,-2.3157786E-1,1.3730451E1,1.805696E1],"categories":[],"categories_nodes":[],"categories_segments":[],"categories_sizes":[],"default_left":[0,0,0,0,0,0,0,0,0,0,0,0,0,0,0,0,0,0,0,0,0,0,0,0,0,0,0,0,0,0,0,0,0,0,0,0,0,0,0],"id":1,"left_children":[1,3,5,7,9,11,13,15,17,19,21,23,25,-1,-1,27,29,31,33,35,-1,-1,37,-1,-1,-1,-1,-1,-1,-1,-1,-1,-1,-1,-1,-1,-1,-1,-1],"loss_changes":[1.3030651E8,1.1997792E7,1.5685736E7,3.926188E6,3.3911775E5,1.614418E6,3.62744E5,5.29404E5,3.57607E5,1.782743E3,1.0808E4,1.20525E4,4.99144E5,0E0,0E0,2.8356E4,5.6499E4,5.05945E4,1.7178E4,5.720134E2,0E0,0E0,6.411E3,0E0,0E0,0E0,0E0,0E0,0E0,0E0,0E0,0E0,0E0,0E0,0E0,0E0,0E0,0E0,0E0],"parents":[2147483647,0,0,1,1,2,2,3,3,4,4,5,5,6,6,7,7,8,8,9,9,10,10,11,11,12,12,15,15,16,16,17,17,18,18,19,19,22,22],"right_children":[2,4,6,8,10,12,14,16,18,20,22,24,26,-1,-1,28,30,32,34,36,-1,-1,38,-1,-1,-1,-1,-1,-1,-1,-1,-1,-1,-1,-1,-1,-1,-1,-1],"split_conditions":[2.346516E3,2.036078E3,2.808398E3,1.8782274E3,2.16935E3,2.51764E3,3.05889E3,1.7398761E3,2.0328534E3,2.0835117E3,2.19987E3,2.41369E3,2.7133682E3,7.482332E1,1.0163887E2,1.7690001E3,6.601361E1,3.8348934E1,1.9659778E3,2.05563E3,2.0737143E0,7.0343018E0,2.6350024E-1,2.1122463E1,2.9233585E1,4.409528E1,6.195584E1,-4.446896E1,-3.6813484E1,-3.1489704E1,-2.4051184E1,-2.482231E1,-1.9812435E1,-1.5743103E1,-1.2277558E1,-1.6237732E0,-2.3157786E-1,1.3730451E1,1.805696E1],"split_indices":[1,1,1,2,0,0,0,8,7,8,0,0,2,0,0,7,3,3,8,0,0,0,6,0,0,0,0,0,0,0,0,0,0,0,0,0,0,0,0],"split_type":[0,0,0,0,0,0,0,0,0,0,0,0,0,0,0,0,0,0,0,0,0,0,0,0,0,0,0,0,0,0,0,0,0,0,0,0,0,0,0],"sum_hessian":[9.64E2,7.11E2,2.53E2,6.21E2,9E1,1.65E2,8.8E1,3.2E2,3.01E2,1.8E1,7.2E1,4.5E1,1.2E2,2.3E1,6.5E1,1.51E2,1.69E2,1.8E2,1.21E2,1.6E1,2E0,4E0,6.8E1,2.2E1,2.3E1,9E1,3E1,4.2E1,1.09E2,1.37E2,3.2E1,5.4E1,1.26E2,6E1,6.1E1,3E0,1.3E1,4.4E1,2.4E1],"tree_param":{"num_deleted":"0","num_feature":"10","num_nodes":"39","size_leaf_vector":"1"}},{"base_weights":[3.7108463E-1,-1.9746716E2,5.549398E2,-2.4203249E2,1.0931418E2,3.809615E2,8.5203174E2,-3.1166687E2,-1.672157E2,-1.6539242E0,1.3669884E2,2.4171895E2,4.3920187E2,6.7013664E1,9.162898E1,-3.4975342E2,-2.6862094E2,-1.9258867E2,-1.2601895E2,-5.264031E0,1.9354655E0,6.4715576E0,1.3993387E2,1.910018E1,2.7474665E1,4.0333687E1,5.620069E1,-3.799272E1,-3.1617483E1,-2.8088327E1,-2.1672026E1,-2.0745794E1,-1.6050125E1,-1.371579E1,-9.317143E0,-1.5019897E0,-2.1006382E-1,1.2387916E1,1.63235E1],"categories":[],"categories_nodes":[],"categories_segments":[],"categories_sizes":[],"default_left":[0,0,0,0,0,0,0,0,0,0,0,0,0,0,0,0,0,0,0,0,0,0,0,0,0,0,0,0,0,0,0,0,0,0,0,0,0,0,0],"id":2,"left_children":[1,3,5,7,9,11,13,15,17,19,21,23,25,-1,-1,27,29,31,33,35,-1,-1,37,-1,-1,-1,-1,-1,-1,-1,-1,-1,-1,-1,-1,-1,-1,-1,-1],"loss_changes":[1.0598446E8,9.760786E6,1.2804048E7,3.188396E6,2.76759E5,1.207582E6,4.7296E5,4.32318E5,2.91405E5,1.5429045E3,7.943375E3,3.12765E4,2.71018E5,0E0,0E0,4.908E4,3.7773E4,5.49695E4,3.03955E4,4.9309644E2,0E0,0E0,5.591125E3,0E0,0E0,0E0,0E0,0E0,0E0,0E0,0E0,0E0,0E0,0E0,0E0,0E0,0E0,0E0,0E0],"parents":[2147483647,0,0,1,1,2,2,3,3,4,4,5,5,6,6,7,7,8,8,9,9,10,10,11,11,12,12,15,15,16,16,17,17,18,18,19,19,22,22],"right_children":[2,4,6,8,10,12,14,16,18,20,22,24,26,-1,-1,28,30,32,34,36,-1,-1,38,-1,-1,-1,-1,-1,-1,-1,-1,-1,-1,-1,-1,-1,-1,-1,-1],"split_conditions":[2.346516E3,2.036078E3,2.973472E3,1.8782274E3,2.16935E3,2.537545E3,3.05889E3,1.7472971E3,1.97154E3,2.0835117E3,2.19987E3,2.375342E3,2.72615E3,6.7013664E1,9.162898E1,-7.636251E0,4.5074444E0,2.2811635E0,5.496912E-1,2.05563E3,1.9354655E0,6.4715576E0,2.6350024E-1,1.910018E1,2.7474665E1,4.0333687E1,5.620069E1,-3.799272E1,-3.1617483E1,-2.8088327E1,-2.1672026E1,-2.0745794E1,-1.6050125E1,-1.371579E1,-9.317143E0,-1.5019897E0,-2.1006382E-1,1.2387916E1,1.63235E1],"split_indices":[1,1,7,2,0,0,0,8,0,8,0,1,0,0,0,5,6,6,6,0,0,0,6,0,0,0,0,0,0,0,0,0,0,0,0,0,0,0,0],"split_type":[0,0,0,0,0,0,0,0,0,0,0,0,0,0,0,0,0,0,0,0,0,0,0,0,0,0,0,0,0,0,0,0,0,0,0,0,0,0,0],"sum_hessian":[9.64E2,7.11E2,2.53E2,6.21E2,9E1,1.61E2,9.2E1,3.2E2,3.01E2,1.8E1,7.2E1,4.9E1,1.12E2,2.7E1,6.5E1,1.66E2,1.54E2,1.84E2,1.17E2,1.6E1,2E0,4E0,6.8E1,2.2E1,2.7E1,9E1,2.2E1,8.2E1,8.4E1,1.21E2,3.3E1,1.22E2,6.2E1,8.5E1,3.2E1,3E0,1.3E1,4.4E1,2.4E1],"tree_param":{"num_deleted":"0","num_feature":"10","num_nodes":"39","size_leaf_vector":"1"}},{"base_weights":[4.9767068E-1,-1.779224E2,5.0063385E2,-2.1811732E2,9.877181E1,3.231598E2,7.3756024E2,-2.865146E2,-1.559365E2,-1.476858E0,1.2351089E2,2.0249048E1,3.679235E2,5.721593E1,8.1917564E1,-3.3298096E2,-2.6023196E2,-1.8744656E2,-1.2288982E2,-5.4923706E0,1.4954407E1,3.9577801E0,1.25317764E2,3.3311398E1,4.1303522E2,-3.534814E1,-2.8500843E1,-2.7415888E1,-2.2858885E1,-2.2923578E1,-1.7001062E1,-1.3793693E1,-1.0039179E1,-7.7876675E-1,7.049805E-1,2.812378E-1,1.8064291E0,9.537747E0,1.3297717E1,2.2856968E1,4.2643764E1],"categories":[],"categories_nodes":[],"categories_segments":[],"categories_sizes":[],"default_left":[0,0,0,0,0,0,0,0,0,0,0,0,0,0,0,0,0,0,0,0,0,0,0,0,0,0,0,0,0,0,0,0,0,0,0,0,0,0,0,0,0],"id":3,"left_children":[1,3,5,7,9,11,13,15,17,19,21,-1,23,-1,-1,25,27,29,31,33,35,-1,37,-1,39,-1,-1,-1,-1,-1,-1,-1,-1,-1,-1,-1,-1,-1,-1,-1,-1],"loss_changes":[8.620019E7,7.9402E6,1.0441912E7,2.600686E6,2.2586794E5,7.19536E5,9.8922E5,2.7362E5,3.185125E5,1.3357543E3,6.111125E3,0E0,2.8865E4,0E0,0E0,5.5E2,2.2385E4,8.19805E4,4.13325E4,5.1550977E2,1.0023755E2,0E0,3.599125E3,0E0,6.366E3,0E0,0E0,0E0,0E0,0E0,0E0,0E0,0E0,0E0,0E0,0E0,0E0,0E0,0E0,0E0,0E0],"parents":[2147483647,0,0,1,1,2,2,3,3,4,4,5,5,6,6,7,7,8,8,9,9,10,10,12,12,15,15,16,16,17,17,18,18,19,19,20,20,22,22,24,24],"right_children":[2,4,6,8,10,12,14,16,18,20,22,-1,24,-1,-1,26,28,30,32,34,36,-1,38,-1,40,-1,-1,-1,-1,-1,-1,-1,-1,-1,-1,-1,-1,-1,-1,-1,-1],"split_conditions":[2.346516E3,2.036078E3,2.798075E3,1.8603116E3,2.16935E3,2.498425E3,3.0271562E3,1.7185869E3,2.0066377E3,2.145405E3,2.2387292E3,2.0249048E1,2.6588848E3,5.721593E1,8.1917564E1,-5.4595447E0,1.8219858E3,-5.0907702E0,2.002543E3,1.5474535E1,5.7882427E1,3.9577801E0,4.3998627E1,3.3311398E1,3.3060555E1,-3.534814E1,-2.8500843E1,-2.7415888E1,-2.2858885E1,-2.2923578E1,-1.7001062E1,-1.3793693E1,-1.0039179E1,-7.7876675E-1,7.049805E-1,2.812378E-1,1.8064291E0,9.537747E0,1.3297717E1,2.2856968E1,4.2643764E1],"split_indices":[1,1,0,2,0,0,2,8,7,0,7,0,2,0,0,4,2,6,2,6,3,0,3,0,3,0,0,0,0,0,0,0,0,0,0,0,0,0,0,0,0],"split_type":[0,0,0,0,0,0,0,0,0,0,0,0,0,0,0,0,0,0,0,0,0,0,0,0,0,0,0,0,0,0,0,0,0,0,0,0,0,0,0,0,0],"sum_hessian":[9.64E2,7.11E2,2.53E2,6.21E2,9E1,1.46E2,1.07E2,2.94E2,3.27E2,1.8E1,7.2E1,4.1E1,1.05E2,3.8E1,6.9E1,1.02E2,1.92E2,1.65E2,1.62E2,1.5E1,3E0,2E0,7E1,6.4E1,4.1E1,6.7E1,3.5E1,1.28E2,6.4E1,4.5E1,1.2E2,9.4E1,6.8E1,1.3E1,2E0,1E0,2E0,1.7E1,5.3E1,4E0,3.7E1],"tree_param":{"num_deleted":"0","num_feature":"10","num_nodes":"41","size_leaf_vector":"1"}},{"base_weights":[5.6098795E-1,-1.6033954E2,4.5158704E2,-1.9751707E2,8.3197845E1,3.144165E2,7.023592E2,-2.6396948E2,-1.4621574E2,-1.033338E1,1.11526886E2,1.9654462E2,3.621018E2,5.548066E1,7.4537285E1,-3.1910282E1,-2.4618091E2,-1.7423993E2,-1.1282442E2,-5.1699038E0,-1.5435791E0,5.2636085E0,1.1417801E2,1.5265393E1,2.2557821E1,3.2788403E1,4.6401722E1,-2.7328293E1,-2.3125866E1,-2.115309E1,-1.60765E1,-1.3917048E1,-1.02529335E1,-5.105598E-1,1.3980896E0,1.00162E1,1.348397E1],"categories":[],"categories_nodes":[],"categories_segments":[],"categories_sizes":[],"default_left":[0,0,0,0,0,0,0,0,0,0,0,0,0,0,0,0,0,0,0,0,0,0,0,0,0,0,0,0,0,0,0,0,0,0,0,0,0],"id":4,"left_children":[1,3,5,7,9,11,13,15,17,19,21,23,25,-1,-1,-1,27,29,31,-1,33,-1,35,-1,-1,-1,-1,-1,-1,-1,-1,-1,-1,-1,-1,-1,-1],"loss_changes":[7.0102776E7,6.462966E6,8.516396E6,2.068226E6,2.5286919E5,8.61877E5,1.51328E5,1.84282E5,3.087945E5,8.282902E3,5.3874375E3,2.9279875E4,2.55872E5,0E0,0E0,0E0,2.0516E4,6.09645E4,2.9942375E4,0E0,1.1773503E3,0E0,6.476125E3,0E0,0E0,0E0,0E0,0E0,0E0,0E0,0E0,0E0,0E0,0E0,0E0,0E0,0E0],"parents":[2147483647,0,0,1,1,2,2,3,3,4,4,5,5,6,6,7,7,8,8,9,9,10,10,11,11,12,12,16,16,17,17,18,18,20,20,22,22],"right_children":[2,4,6,8,10,12,14,16,18,20,22,24,26,-1,-1,-1,28,30,32,-1,34,-1,36,-1,-1,-1,-1,-1,-1,-1,-1,-1,-1,-1,-1,-1,-1],"split_conditions":[2.346516E3,2.03128E3,2.9884646E3,1.8482091E3,2.16935E3,2.537545E3,3.05889E3,1.7369735E3,2.0042836E3,2.02857E3,2.19987E3,2.41369E3,2.72615E3,5.548066E1,7.4537285E1,-3.1910282E1,4.292317E1,-5.2454157E0,-5.2454157E0,-5.1699038E0,2.145405E3,5.2636085E0,5.744918E1,1.5265393E1,2.2557821E1,3.2788403E1,4.6401722E1,-2.7328293E1,-2.3125866E1,-2.115309E1,-1.60765E1,-1.3917048E1,-1.02529335E1,-5.105598E-1,1.3980896E0,1.00162E1,1.348397E1],"split_indices":[1,1,7,2,0,0,0,2,7,0,0,0,0,0,0,0,3,6,6,0,0,0,3,0,0,0,0,0,0,0,0,0,0,0,0,0,0],"split_type":[0,0,0,0,0,0,0,0,0,0,0,0,0,0,0,0,0,0,0,0,0,0,0,0,0,0,0,0,0,0,0,0,0,0,0,0,0],"sum_hessian":[9.64E2,7.11E2,2.53E2,6.17E2,9.4E1,1.65E2,8.8E1,2.67E2,3.5E2,2.2E1,7.2E1,4.9E1,1.16E2,2.3E1,6.5E1,6.1E1,2.06E2,1.88E2,1.62E2,3E0,1.9E1,4E0,6.8E1,2.2E1,2.7E1,9E1,2.6E1,6.7E1,1.39E2,4.6E1,1.42E2,4.2E1,1.2E2,1.6E1,3E0,4.4E1,2.4E1],"tree_param":{"num_deleted":"0","num_feature":"10","num_nodes":"37","size_leaf_vector":"1"}},{"base_weights":[6.3726103E-1,-1.4447314E2,4.074009E2,-1.7800441E2,7.517736E1,2.835641E2,6.337999E2,-2.2754277E2,-1.2155565E2,-9.314639E0,1.007683E2,1.7101988E2,3.2400598E2,5.1128887E1,6.7624435E1,-2.5687796E2,-1.9435379E2,-1.383891E2,-9.087094E1,-4.6834626E0,-1.3449097E0,4.842515E0,1.03100876E2,1.3383243E1,1.9223207E1,2.8016499E1,3.8939536E2,-2.9999989E1,-2.405127E1,-2.042789E1,-1.5363754E1,-1.5524541E1,-1.2132255E1,-1.0398204E1,-7.2862077E0,-6.2763673E-1,8.710136E-1,9.02371E0,1.2213163E1,1.6374456E1,3.9593075E1],"categories":[],"categories_nodes":[],"categories_segments":[],"categories_sizes":[],"default_left":[0,0,0,0,0,0,0,0,0,0,0,0,0,0,0,0,0,0,0,0,0,0,0,0,0,0,0,0,0,0,0,0,0,0,0,0,0,0,0,0,0],"id":5,"left_children":[1,3,5,7,9,11,13,15,17,19,21,23,25,-1,-1,27,29,31,33,-1,35,-1,37,-1,-1,-1,39,-1,-1,-1,-1,-1,-1,-1,-1,-1,-1,-1,-1,-1,-1],"loss_changes":[5.7018596E7,5.257377E6,6.94156E6,1.700502E6,2.0635044E5,7.00139E5,1.17032E5,2.69418E5,1.377345E5,6.8145674E3,3.92025E3,1.0559125E4,2.3778E5,0E0,0E0,4.8521E4,3.24655E4,3.467325E4,1.7451938E4,0E0,1.0463885E3,0E0,5.8709375E3,0E0,0E0,0E0,3.0055E3,0E0,0E0,0E0,0E0,0E0,0E0,0E0,0E0,0E0,0E0,0E0,0E0,0E0,0E0],"parents":[2147483647,0,0,1,1,2,2,3,3,4,4,5,5,6,6,7,7,8,8,9,9,10,10,11,11,12,12,15,15,16,16,17,17,18,18,20,20,22,22,26,26],"right_children":[2,4,6,8,10,12,14,16,18,20,22,24,26,-1,-1,28,30,32,34,-1,36,-1,38,-1,-1,-1,40,-1,-1,-1,-1,-1,-1,-1,-1,-1,-1,-1,-1,-1,-1],"split_conditions":[2.346516E3,2.0382277E3,2.909525E3,1.8842249E3,2.16935E3,2.51764E3,3.092845E3,1.7937205E3,1.97519E3,2.010652E3,2.19987E3,2.411715E3,2.684654E3,5.1128887E1,6.7624435E1,1.7690001E3,6.601361E1,4.817151E1,-1.1301079E0,-4.6834626E0,1.9970231E3,4.842515E0,2.6350024E-1,1.3383243E1,1.9223207E1,2.8016499E1,3.3060555E1,-2.9999989E1,-2.405127E1,-2.042789E1,-1.5363754E1,-1.5524541E1,-1.2132255E1,-1.0398204E1,-7.2862077E0,-6.2763673E-1,8.710136E-1,9.02371E0,1.2213163E1,1.6374456E1,3.9593075E1],"split_indices":[1,2,0,2,0,0,0,2,0,1,0,0,2,0,0,7,3,3,6,0,8,0,6,0,0,0,3,0,0,0,0,0,0,0,0,0,0,0,0,0,0],"split_type":[0,0,0,0,0,0,0,0,0,0,0,0,0,0,0,0,0,0,0,0,0,0,0,0,0,0,0,0,0,0,0,0,0,0,0,0,0,0,0,0,0],"sum_hessian":[9.64E2,7.11E2,2.53E2,6.17E2,9.4E1,1.65E2,8.8E1,3.27E2,2.9E2,2.2E1,7.2E1,4.5E1,1.2E2,2.6E1,6.2E1,1.7E2,1.57E2,1.85E2,1.05E2,3E0,1.9E1,4E0,6.8E1,1.9E1,2.6E1,7.5E1,4.5E1,4.2E1,1.28E2,1.23E2,3.4E1,8.9E1,9.6E1,5.8E1,4.7E1,1.3E1,6E0,4.4E1,2.4E1,2E0,4.3E1],"tree_param":{"num_deleted":"0","num_feature":"10","num_nodes":"41","size_leaf_vector":"1"}},{"base_weights":[6.997474E-1,-1.3546458E2,3.5350955E2,-1.6042896E2,5.9078476E1,2.2240005E2,5.381303E2,-2.0900693E2,-1.13643524E2,-8.408383E0,8.4821915E1,1.3964294E2,2.6603845E2,4.2047497E1,6.010359E1,-2.4665324E2,-1.8971286E2,-1.368704E2,-9.085941E1,-4.2356995E1,-1.1982422E0,1.6526368E0,8.573014E1,8.719097E0,1.5169257E1,2.3604748E1,2.9427243E2,-2.6205301E1,-2.044198E1,-2.1033325E1,-1.7555456E1,-1.5906394E1,-1.1907436E1,-1.0367235E1,-7.62701E0,-4.7817464E0,-1.2987794E0,-3.8892415E-1,1.5347168E0,4.699995E0,8.776639E0,2.3163578E1,3.2030952E1],"categories":[],"categories_nodes":[],"categories_segments":[],"categories_sizes":[],"default_left":[0,0,0,0,0,0,0,0,0,0,0,0,0,0,0,0,0,0,0,0,0,0,0,0,0,0,0,0,0,0,0,0,0,0,0,0,0,0,0,0,0,0,0],"id":6,"left_children":[1,3,5,7,9,11,13,15,17,19,21,23,25,-1,-1,27,29,31,33,35,37,-1,39,-1,-1,-1,41,-1,-1,-1,-1,-1,-1,-1,-1,-1,-1,-1,-1,-1,-1,-1,-1],"loss_changes":[4.640659E7,3.394558E6,6.391608E6,1.380802E6,1.3970072E5,5.3706E5,5.68812E5,1.72565E5,1.5532125E5,5.5790547E3,2.1808438E3,2.279925E4,1.77545E4,0E0,0E0,1.0819E4,2.2633E4,4.2278E4,2.256275E4,2.0435547E1,9.501626E2,0E0,3.7021875E2,0E0,0E0,0E0,5.718E3,0E0,0E0,0E0,0E0,0E0,0E0,0E0,0E0,0E0,0E0,0E0,0E0,0E0,0E0,0E0,0E0],"parents":[2147483647,0,0,1,1,2,2,3,3,4,4,5,5,6,6,7,7,8,8,9,9,10,10,11,11,12,12,15,15,16,16,17,17,18,18,19,19,20,20,22,22,26,26],"right_children":[2,4,6,8,10,12,14,16,18,20,22,24,26,-1,-1,28,30,32,34,36,38,-1,40,-1,-1,-1,42,-1,-1,-1,-1,-1,-1,-1,-1,-1,-1,-1,-1,-1,-1,-1,-1],"split_conditions":[2.3478042E3,2.03128E3,2.76666E3,1.8662269E3,2.16935E3,2.498425E3,3.0271562E3,1.7633754E3,1.9426056E3,2.02857E3,2.2284358E3,-4.4931474E0,6.0988667E1,4.2047497E1,6.010359E1,5.9365772E1,-4.9673617E-1,4.308338E1,1.9876553E3,5.5164856E1,2.0835117E3,1.6526368E0,-1.2909755E1,8.719097E0,1.5169257E1,2.3604748E1,2.61661E3,-2.6205301E1,-2.044198E1,-2.1033325E1,-1.7555456E1,-1.5906394E1,-1.1907436E1,-1.0367235E1,-7.62701E0,-4.7817464E0,-1.2987794E0,-3.8892415E-1,1.5347168E0,4.699995E0,8.776639E0,2.3163578E1,3.2030952E1],"split_indices":[2,1,0,2,0,0,2,2,2,0,7,6,3,0,0,3,6,3,2,3,8,0,6,0,0,0,0,0,0,0,0,0,0,0,0,0,0,0,0,0,0,0,0],"split_type":[0,0,0,0,0,0,0,0,0,0,0,0,0,0,0,0,0,0,0,0,0,0,0,0,0,0,0,0,0,0,0,0,0,0,0,0,0,0,0,0,0,0,0],"sum_hessian":[9.64E2,6.96E2,2.68E2,6.17E2,7.9E1,1.58E2,1.1E2,3.01E2,3.16E2,2.2E1,5.7E1,5.6E1,1.02E2,4.1E1,6.9E1,9.8E1,2.03E2,1.54E2,1.62E2,3E0,1.9E1,1E0,5.6E1,1.2E1,4.4E1,5.4E1,4.8E1,6.8E1,3E1,7.7E1,1.26E2,6.5E1,8.9E1,8.3E1,7.9E1,2E0,1E0,1.7E1,2E0,4E0,5.2E1,1.7E1,3.1E1],"tree_param":{"num_deleted":"0","num_feature":"10","num_nodes":"43","size_leaf_vector":"1"}},{"base_weights":[7.1680474E-1,-1.22091515E2,3.189201E2,-1.4461131E2,5.3400055E1,2.008059E2,4.8523755E2,-1.9633055E2,-1.0846493E2,-7.4274E0,7.66006E1,1.26097824E2,2.4019963E2,3.8618526E1,5.4692196E1,-2.1856308E2,-1.706664E1,-1.320628E2,-8.466343E1,-3.1082907E1,8.7040204E-1,2.6725423E0,7.790462E1,8.12082E0,1.3751503E1,2.1287191E1,2.6597156E2,-2.462297E1,-1.9810349E1,-1.4154204E1,-9.70953E0,-9.580658E0,-6.8840456E0,-3.0522463E-1,-3.6078591E0,-1.7065583E-1,1.4324056E0,6.1551948E0,8.527966E0,2.0975906E1,2.8927948E1],"categories":[],"categories_nodes":[],"categories_segments":[],"categories_sizes":[],"default_left":[0,0,0,0,0,0,0,0,0,0,0,0,0,0,0,0,0,0,0,0,0,0,0,0,0,0,0,0,0,0,0,0,0,0,0,0,0,0,0,0,0],"id":7,"left_children":[1,3,5,7,9,11,13,15,17,19,21,23,25,-1,-1,27,-1,29,31,33,35,-1,37,-1,-1,-1,39,-1,-1,-1,-1,-1,-1,-1,-1,-1,-1,-1,-1,-1,-1],"loss_changes":[3.774922E7,2.76229E6,5.186916E6,1.134033E6,1.1346731E5,4.376535E5,4.66996E5,1.07056E5,1.943885E5,4.541695E3,1.6901875E3,1.8045938E4,1.5924E4,0E0,0E0,2.59395E4,0E0,4.658325E4,2.60235E4,7.3007324E2,6.484964E2,0E0,1.5045625E3,0E0,0E0,0E0,3.5205E3,0E0,0E0,0E0,0E0,0E0,0E0,0E0,0E0,0E0,0E0,0E0,0E0,0E0,0E0],"parents":[2147483647,0,0,1,1,2,2,3,3,4,4,5,5,6,6,7,7,8,8,9,9,10,10,11,11,12,12,15,15,17,17,18,18,19,19,20,20,22,22,26,26],"right_children":[2,4,6,8,10,12,14,16,18,20,22,24,26,-1,-1,28,-1,30,32,34,36,-1,38,-1,-1,-1,40,-1,-1,-1,-1,-1,-1,-1,-1,-1,-1,-1,-1,-1,-1],"split_conditions":[2.3478042E3,2.0382277E3,2.76666E3,1.8404308E3,2.16935E3,2.498425E3,3.05889E3,-7.596498E-1,1.9350613E3,2.0370599E3,2.2387292E3,-4.207589E0,6.0988667E1,3.8618526E1,5.4692196E1,1.763736E3,-1.706664E1,5.131095E0,1.9876553E3,2.031005E3,2.0835117E3,2.6725423E0,4.9122826E1,8.12082E0,1.3751503E1,2.1287191E1,2.61661E3,-2.462297E1,-1.9810349E1,-1.4154204E1,-9.70953E0,-9.580658E0,-6.8840456E0,-3.0522463E-1,-3.6078591E0,-1.7065583E-1,1.4324056E0,6.1551948E0,8.527966E0,2.0975906E1,2.8927948E1],"split_indices":[2,2,0,2,0,0,0,4,2,0,7,6,3,0,0,1,0,6,2,0,8,0,3,0,0,0,0,0,0,0,0,0,0,0,0,0,0,0,0,0,0],"split_type":[0,0,0,0,0,0,0,0,0,0,0,0,0,0,0,0,0,0,0,0,0,0,0,0,0,0,0,0,0,0,0,0,0,0,0,0,0,0,0,0,0],"sum_hessian":[9.64E2,6.96E2,2.68E2,6.17E2,7.9E1,1.58E2,1.1E2,2.52E2,3.65E2,2.2E1,5.7E1,5.6E1,1.02E2,4.5E1,6.5E1,1.31E2,1.21E2,1.81E2,1.84E2,5E0,1.7E1,2E0,5.5E1,1.3E1,4.3E1,5.4E1,4.8E1,5.1E1,8E1,1.4E2,4.1E1,1.05E2,7.9E1,1E0,4E0,1.5E1,2E0,2E1,3.5E1,1.7E1,3.1E1],"tree_param":{"num_deleted":"0","num_feature":"10","num_nodes":"41","size_leaf_vector":"1"}},{"base_weights":[7.479681E-1,-1.0035377E2,3.1523572E2,-1.2971068E2,6.6558525E1,2.2456493E2,4.7260105E1,-1.6698921E2,-8.7822296E1,-5.7974404E-1,7.970058E1,1.8911423E2,2.8474274E2,-1.8924872E2,-1.4184134E2,-1.0209124E2,-6.675165E1,7.435512E0,-4.8510556E0,6.822787E1,9.354226E1,1.3800611E1,2.0209282E1,1.2915235E1,2.913627E1,-2.2269247E1,-1.7663376E1,-1.5846713E1,-1.2449954E1,-1.1439033E1,-8.755187E0,-7.951942E0,-5.70922E0,1.0385253E-1,1.5618652E0,3.103719E-1,-1.0210755E0,4.285479E0,7.1708946E0,7.181058E0,1.0707081E1],"categories":[],"categories_nodes":[],"categories_segments":[],"categories_sizes":[],"default_left":[0,0,0,0,0,0,0,0,0,0,0,0,0,0,0,0,0,0,0,0,0,0,0,0,0,0,0,0,0,0,0,0,0,0,0,0,0,0,0,0,0],"id":8,"left_children":[1,3,5,7,9,11,-1,13,15,17,19,21,23,25,27,29,31,33,35,37,39,-1,-1,-1,-1,-1,-1,-1,-1,-1,-1,-1,-1,-1,-1,-1,-1,-1,-1,-1,-1],"loss_changes":[3.0714056E7,3.590555E6,3.246954E6,9.56611E5,9.710297E4,2.682865E5,0E0,1.56764E5,8.18785E4,6.865475E2,8.2275625E3,3.711475E4,1.79905E4,3.28085E4,2.582575E4,2.1099875E4,1.05063125E4,3.5021173E2,5.859489E2,1.6965156E3,3.777125E3,0E0,0E0,0E0,0E0,0E0,0E0,0E0,0E0,0E0,0E0,0E0,0E0,0E0,0E0,0E0,0E0,0E0,0E0,0E0,0E0],"parents":[2147483647,0,0,1,1,2,2,3,3,4,4,5,5,7,7,8,8,9,9,10,10,11,11,12,12,13,13,14,14,15,15,16,16,17,17,18,18,19,19,20,20],"right_children":[2,4,6,8,10,12,-1,14,16,18,20,22,24,26,28,30,32,34,36,38,40,-1,-1,-1,-1,-1,-1,-1,-1,-1,-1,-1,-1,-1,-1,-1,-1,-1,-1,-1,-1],"split_conditions":[2.411715E3,2.036078E3,2.9238E3,1.8842249E3,2.16935E3,2.6772493E3,4.7260105E1,1.7937205E3,2.0328534E3,7.590126E1,2.3425115E3,2.498425E3,3.3060555E1,1.7690001E3,8.6648166E-1,-6.046156E-1,-2.4962866E0,3.2667904E1,1.945226E3,2.233005E3,-2.8370426E0,1.3800611E1,2.0209282E1,1.2915235E1,2.913627E1,-2.2269247E1,-1.7663376E1,-1.5846713E1,-1.2449954E1,-1.1439033E1,-8.755187E0,-7.951942E0,-5.70922E0,1.0385253E-1,1.5618652E0,3.103719E-1,-1.0210755E0,4.285479E0,7.1708946E0,7.181058E0,1.0707081E1],"split_indices":[0,1,0,2,0,2,0,2,7,3,2,0,3,7,6,6,6,4,8,0,6,0,0,0,0,0,0,0,0,0,0,0,0,0,0,0,0,0,0,0,0],"split_type":[0,0,0,0,0,0,0,0,0,0,0,0,0,0,0,0,0,0,0,0,0,0,0,0,0,0,0,0,0,0,0,0,0,0,0,0,0,0,0,0,0],"sum_hessian":[9.64E2,7.3E2,2.34E2,6.21E2,1.09E2,1.5E2,8.4E1,3.27E2,2.94E2,1.8E1,9.1E1,9.7E1,5.3E1,1.7E2,1.57E2,1.73E2,1.21E2,6E0,1.2E1,5.3E1,3.8E1,2.2E1,7.5E1,3E0,5E1,4.2E1,1.28E2,7.6E1,8.1E1,9E1,8.3E1,4.9E1,7.2E1,4E0,2E0,5E0,7E0,8E0,4.5E1,1.7E1,2.1E1],"tree_param":{"num_deleted":"0","num_feature":"10","num_nodes":"41","size_leaf_vector":"1"}},{"base_weights":[7.265845E-1,-9.913908E1,2.594836E2,-1.18496956E2,3.617283E1,1.6326996E2,3.9496545E2,-1.6315222E2,-9.103942E1,-1.4191693E1,6.246813E1,1.0308648E2,1.9499023E2,3.1587645E1,4.502099E1,-1.8562321E2,-1.4394554E1,-1.1281785E2,-7.3061356E1,-3.590785E1,-4.52417E-1,3.9045548E0,6.543483E1,6.501775E0,1.117933E2,1.6778074E1,2.1483068E1,-2.0792667E1,-1.693854E1,-1.2054726E1,-7.427156E0,-8.097595E0,-5.7937055E0,-4.293079E0,-1.1129273E0,-2.6383466E-1,1.2813965E0,5.305765E0,8.000057E0,5.500531E0,1.1453994E1],"categories":[],"categories_nodes":[],"categories_segments":[],"categories_sizes":[],"default_left":[0,0,0,0,0,0,0,0,0,0,0,0,0,0,0,0,0,0,0,0,0,0,0,0,0,0,0,0,0,0,0,0,0,0,0,0,0,0,0,0,0],"id":9,"left_children":[1,3,5,7,9,11,13,15,17,19,21,23,25,-1,-1,27,-1,29,31,33,35,-1,37,-1,39,-1,-1,-1,-1,-1,-1,-1,-1,-1,-1,-1,-1,-1,-1,-1,-1],"loss_changes":[2.4962232E7,1.8299755E6,3.441984E6,7.33082E5,1.1742934E5,2.83436E5,3.42774E5,7.2978E4,1.405405E5,9.233046E3,1.4753594E3,1.16245625E4,1.955975E4,0E0,0E0,2.08275E3,0E0,4.16965E4,2.056575E4,1.6104346E3,6.1379517E2,0E0,4.7695E3,0E0,7.18625E2,0E0,0E0,0E0,0E0,0E0,0E0,0E0,0E0,0E0,0E0,0E0,0E0,0E0,0E0,0E0,0E0],"parents":[2147483647,0,0,1,1,2,2,3,3,4,4,5,5,6,6,7,7,8,8,9,9,10,10,11,11,12,12,15,15,17,17,18,18,19,19,20,20,22,22,24,24],"right_children":[2,4,6,8,10,12,14,16,18,20,22,24,26,-1,-1,28,-1,30,32,34,36,-1,38,-1,40,-1,-1,-1,-1,-1,-1,-1,-1,-1,-1,-1,-1,-1,-1,-1,-1],"split_conditions":[2.3478042E3,2.084789E3,2.76666E3,1.8219858E3,2.16935E3,2.498425E3,3.092845E3,-4.48876E0,1.9249944E3,2.01385E3,2.233005E3,-4.4931474E0,1.1064554E0,3.1587645E1,4.502099E1,1.7280591E3,-1.4394554E1,6.1293764E0,1.9871345E3,2.7090933E0,2.0835117E3,3.9045548E0,5.4218052E1,6.501775E0,3.9178703E1,1.6778074E1,2.1483068E1,-2.0792667E1,-1.693854E1,-1.2054726E1,-7.427156E0,-8.097595E0,-5.7937055E0,-4.293079E0,-1.1129273E0,-2.6383466E-1,1.2813965E0,5.305765E0,8.000057E0,5.500531E0,1.1453994E1],"split_indices":[2,7,0,2,0,0,0,4,2,1,0,6,6,0,0,2,0,6,2,6,8,0,3,0,3,0,0,0,0,0,0,0,0,0,0,0,0,0,0,0,0],"split_type":[0,0,0,0,0,0,0,0,0,0,0,0,0,0,0,0,0,0,0,0,0,0,0,0,0,0,0,0,0,0,0,0,0,0,0,0,0,0,0,0,0],"sum_hessian":[9.64E2,6.96E2,2.68E2,6.09E2,8.7E1,1.58E2,1.1E2,2.3E2,3.79E2,3E1,5.7E1,5.6E1,1.02E2,4.8E1,6.2E1,1.02E2,1.28E2,1.69E2,2.1E2,1.1E1,1.9E1,8E0,4.9E1,1.2E1,4.4E1,4.7E1,5.5E1,3.8E1,6.4E1,1.39E2,3E1,1.35E2,7.5E1,8E0,3E0,1.7E1,2E0,2.9E1,2E1,3E0,4.1E1],"tree_param":{"num_deleted":"0","num_feature":"10","num_nodes":"41","size_leaf_vector":"1"}},{"base_weights":[7.2195E-1,-8.149024E1,2.5645126E2,-1.0587401E2,5.1410282E1,1.8245715E2,3.8488257E2,-1.3470593E2,-7.035885E1,-4.805632E0,6.490545E1,1.4874762E2,2.2476903E2,3.1056946E1,4.059035E1,-1.517515E2,-1.1156743E2,-8.2722626E1,-5.6164604E1,-3.2371662E0,-6.387881E-1,4.918995E0,7.135878E1,1.2010348E1,1.617164E2,1.1985509E1,2.3340681E1,-1.7438147E1,-1.3833414E1,-1.26825075E1,-9.370069E0,-9.225849E0,-6.2963767E0,-6.380465E0,-3.868998E0,-2.2012451E-1,1.5305176E0,3.8993123E0,7.745549E0,1.630798E1,4.268335E0],"categories":[],"categories_nodes":[],"categories_segments":[],"categories_sizes":[],"default_left":[0,0,0,0,0,0,0,0,0,0,0,0,0,0,0,0,0,0,0,0,0,0,0,0,0,0,0,0,0,0,0,0,0,0,0,0,0,0,0,0,0],"id":10,"left_children":[1,3,5,7,9,11,13,15,17,19,21,23,25,-1,-1,27,29,31,33,-1,35,-1,37,-1,39,-1,-1,-1,-1,-1,-1,-1,-1,-1,-1,-1,-1,-1,-1,-1,-1],"loss_changes":[2.0309124E7,2.3743335E6,2.163018E6,6.23336E5,8.679722E4,1.8194E5,6.72E3,1.171685E5,4.431675E4,2.6211785E3,5.82025E3,1.2895875E4,3.09295E4,0E0,0E0,3.4479E4,2.8461875E4,2.1888625E4,1.52878125E4,0E0,5.568374E2,0E0,9.411219E3,0E0,2.289625E3,0E0,0E0,0E0,0E0,0E0,0E0,0E0,0E0,0E0,0E0,0E0,0E0,0E0,0E0,0E0,0E0],"parents":[2147483647,0,0,1,1,2,2,3,3,4,4,5,5,6,6,7,7,8,8,9,9,10,10,11,11,12,12,15,15,16,16,17,17,18,18,20,20,22,22,24,24],"right_children":[2,4,6,8,10,12,14,16,18,20,22,24,26,-1,-1,28,30,32,34,-1,36,-1,38,-1,40,-1,-1,-1,-1,-1,-1,-1,-1,-1,-1,-1,-1,-1,-1,-1,-1],"split_conditions":[2.411715E3,2.03128E3,2.9238E3,1.8921293E3,2.16935E3,2.6588848E3,3.092845E3,1.8034672E3,1.9543951E3,5.5164856E1,4.9888042E1,2.537545E3,6.4631195E0,3.1056946E1,4.059035E1,-9.255668E0,1.7167034E0,2.2811635E0,5.526211E1,-3.2371662E0,2.093632E3,4.918995E0,2.3669478E3,1.2010348E1,2.693665E3,1.1985509E1,2.3340681E1,-1.7438147E1,-1.3833414E1,-1.26825075E1,-9.370069E0,-9.225849E0,-6.2963767E0,-6.380465E0,-3.868998E0,-2.2012451E-1,1.5305176E0,3.8993123E0,7.745549E0,1.630798E1,4.268335E0],"split_indices":[0,1,0,2,0,2,0,2,2,3,3,0,4,0,0,4,6,6,3,0,8,0,7,0,0,0,0,0,0,0,0,0,0,0,0,0,0,0,0,0,0],"split_type":[0,0,0,0,0,0,0,0,0,0,0,0,0,0,0,0,0,0,0,0,0,0,0,0,0,0,0,0,0,0,0,0,0,0,0,0,0,0,0,0,0],"sum_hessian":[9.64E2,7.3E2,2.34E2,6.17E2,1.13E2,1.5E2,8.4E1,3.39E2,2.78E2,2.2E1,9.1E1,8.6E1,6.4E1,2.2E1,6.2E1,1.92E2,1.47E2,1.46E2,1.32E2,2E0,2E1,2.9E1,6.2E1,3E1,5.6E1,6E0,5.8E1,6.7E1,1.25E2,7.6E1,7.1E1,9.6E1,5E1,9E1,4.2E1,1.9E1,1E0,1.1E1,5.1E1,5.5E1,1E0],"tree_param":{"num_deleted":"0","num_feature":"10","num_nodes":"41","size_leaf_vector":"1"}},{"base_weights":[7.275832E-1,-8.053001E1,2.1126964E2,-9.627024E1,2.9493544E1,1.3273322E2,3.218644E2,-1.308316E2,-7.271307E1,-1.105766E1,5.065895E1,8.4330284E1,1.5823064E2,2.5860472E1,3.6595746E2,-1.474309E2,-1.1217378E1,-9.495169E1,-6.087681E1,-3.1211365E1,-1.3942649E0,3.9121652E0,5.57017E1,7.091686E1,1.0559927E1,1.3514857E2,1.7518973E2,2.4423002E1,3.792227E1,-1.7029314E1,-1.3496211E1,-1.0702392E1,-7.8672137E0,-6.9964576E0,-4.5398083E0,1.970215E-2,-3.4723077E0,-9.5872974E-1,2.2773285E-1,3.541866E0,6.2653356E0,5.7228312E0,8.159341E0,5.581128E0,1.3738474E1,1.3542725E1,1.8904959E1],"categories":[],"categories_nodes":[],"categories_segments":[],"categories_sizes":[],"default_left":[0,0,0,0,0,0,0,0,0,0,0,0,0,0,0,0,0,0,0,0,0,0,0,0,0,0,0,0,0,0,0,0,0,0,0,0,0,0,0,0,0,0,0,0,0,0,0],"id":11,"left_children":[1,3,5,7,9,11,13,15,17,19,21,23,25,-1,27,29,-1,31,33,35,37,-1,39,41,-1,43,45,-1,-1,-1,-1,-1,-1,-1,-1,-1,-1,-1,-1,-1,-1,-1,-1,-1,-1,-1,-1],"loss_changes":[1.6526369E7,1.2099015E6,2.293735E6,4.871295E5,7.6089055E4,1.82886E5,2.14976E5,5.96495E4,9.029575E4,5.993833E3,1.1952812E3,8.772719E3,1.6643E4,0E0,9.112E3,1.322E4,0E0,1.61465E4,3.0724562E4,1.1098125E3,6.836261E2,0E0,3.1389297E3,8.84125E2,0E0,8.48125E2,5.259125E3,0E0,0E0,0E0,0E0,0E0,0E0,0E0,0E0,0E0,0E0,0E0,0E0,0E0,0E0,0E0,0E0,0E0,0E0,0E0,0E0],"parents":[2147483647,0,0,1,1,2,2,3,3,4,4,5,5,6,6,7,7,8,8,9,9,10,10,11,11,12,12,14,14,15,15,17,17,18,18,19,19,20,20,22,22,23,23,25,25,26,26],"right_children":[2,4,6,8,10,12,14,16,18,20,22,24,26,-1,28,30,-1,32,34,36,38,-1,40,42,-1,44,46,-1,-1,-1,-1,-1,-1,-1,-1,-1,-1,-1,-1,-1,-1,-1,-1,-1,-1,-1,-1],"split_conditions":[2.3478042E3,2.084789E3,2.76666E3,1.8342909E3,2.16935E3,2.498425E3,3.092845E3,-7.596498E-1,-5.0168843E0,1.8516876E1,4.9122826E1,2.41369E3,1.1064554E0,2.5860472E1,-1.5124751E1,1.7280591E3,-1.1217378E1,1.8673248E3,1.9596099E3,2.031005E3,2.05563E3,3.9121652E0,2.3669478E3,-9.270967E-1,1.0559927E1,2.5132452E1,2.6421992E3,2.4423002E1,3.792227E1,-1.7029314E1,-1.3496211E1,-1.0702392E1,-7.8672137E0,-6.9964576E0,-4.5398083E0,1.970215E-2,-3.4723077E0,-9.5872974E-1,2.2773285E-1,3.541866E0,6.2653356E0,5.7228312E0,8.159341E0,5.581128E0,1.3738474E1,1.3542725E1,1.8904959E1],"split_indices":[2,7,0,2,0,0,0,4,4,4,3,0,6,0,6,2,0,8,2,0,0,0,7,6,0,3,2,0,0,0,0,0,0,0,0,0,0,0,0,0,0,0,0,0,0,0,0],"split_type":[0,0,0,0,0,0,0,0,0,0,0,0,0,0,0,0,0,0,0,0,0,0,0,0,0,0,0,0,0,0,0,0,0,0,0,0,0,0,0,0,0,0,0,0,0,0,0],"sum_hessian":[9.64E2,6.96E2,2.68E2,6.09E2,8.7E1,1.58E2,1.1E2,2.45E2,3.64E2,3E1,5.7E1,5.6E1,1.02E2,4.8E1,6.2E1,1.26E2,1.19E2,1.24E2,2.4E2,9E0,2.1E1,2E1,3.7E1,3.7E1,1.9E1,4.7E1,5.5E1,8E0,5.4E1,4E1,8.6E1,6.8E1,5.6E1,1.49E2,9.1E1,1E0,8E0,6E0,1.5E1,1.1E1,2.6E1,1.9E1,1.8E1,2E0,4.5E1,1.7E1,3.8E1],"tree_param":{"num_deleted":"0","num_feature":"10","num_nodes":"47","size_leaf_vector":"1"}},{"base_weights":[7.60627E-1,-7.256641E1,1.9075386E2,-8.6761E1,2.6652565E1,1.2898691E2,3.0625922E2,-1.1963967E2,-6.654591E1,-1.0086847E1,4.582962E1,8.0775986E1,1.555774E2,2.4741865E1,3.3035123E2,-1.3674812E2,-1.0505199E1,-8.0788216E1,-5.1097057E1,-2.8435413E1,-1.288097E0,2.126968E0,4.725499E1,6.410975E1,1.005096E1,1.2191684E1,1.710065E2,2.2252058E1,3.4198986E1,-1.5482289E1,-1.2379945E1,-8.650307E0,-5.1014442E0,-6.2905703E0,-4.301628E0,1.871338E-2,-3.1636488E0,-4.5965424E-1,6.4580774E-1,3.4257295E0,5.1375713E0,5.684339E0,8.425318E0,1.2519162E1,1.8227654E1],"categories":[],"categories_nodes":[],"categories_segments":[],"categories_sizes":[],"default_left":[0,0,0,0,0,0,0,0,0,0,0,0,0,0,0,0,0,0,0,0,0,0,0,0,0,0,0,0,0,0,0,0,0,0,0,0,0,0,0,0,0,0,0,0,0],"id":12,"left_children":[1,3,5,7,9,11,13,15,17,19,21,23,25,-1,27,29,-1,31,33,35,37,-1,39,41,-1,-1,43,-1,-1,-1,-1,-1,-1,-1,-1,-1,-1,-1,-1,-1,-1,-1,-1,-1,-1],"loss_changes":[1.3457876E7,9.839485E5,1.879653E6,3.97472E5,6.2463E4,2.143385E5,5.01E4,4.328575E4,7.9482375E4,4.96815E3,1.0253047E3,1.4933875E4,3.7838E4,0E0,2.9655E3,4.939625E3,0E0,2.8936875E4,1.4947281E4,9.221504E2,5.9349634E2,0E0,1.1322422E3,7.7278125E2,0E0,0E0,1.590575E4,0E0,0E0,0E0,0E0,0E0,0E0,0E0,0E0,0E0,0E0,0E0,0E0,0E0,0E0,0E0,0E0,0E0,0E0],"parents":[2147483647,0,0,1,1,2,2,3,3,4,4,5,5,6,6,7,7,8,8,9,9,10,10,11,11,12,12,14,14,15,15,17,17,18,18,19,19,20,20,22,22,23,23,26,26],"right_children":[2,4,6,8,10,12,14,16,18,20,22,24,26,-1,28,30,-1,32,34,36,38,-1,40,42,-1,-1,44,-1,-1,-1,-1,-1,-1,-1,-1,-1,-1,-1,-1,-1,-1,-1,-1,-1,-1],"split_conditions":[2.3478042E3,2.084789E3,2.973472E3,1.8219858E3,2.16935E3,2.537545E3,3.092845E3,-4.48876E0,1.9339552E3,1.8516876E1,-1.2909755E1,2.375342E3,6.4631195E0,2.4741865E1,-1.5124751E1,1.7280591E3,-1.0505199E1,6.1293764E0,4.5740963E1,2.031005E3,1.9970231E3,2.126968E0,2.3695854E3,6.639126E1,1.005096E1,1.2191684E1,2.64006E3,2.2252058E1,3.4198986E1,-1.5482289E1,-1.2379945E1,-8.650307E0,-5.1014442E0,-6.2905703E0,-4.301628E0,1.871338E-2,-3.1636488E0,-4.5965424E-1,6.4580774E-1,3.4257295E0,5.1375713E0,5.684339E0,8.425318E0,1.2519162E1,1.8227654E1],"split_indices":[2,7,7,2,0,0,0,4,2,4,6,1,4,0,6,2,0,6,3,0,8,0,7,3,0,0,0,0,0,0,0,0,0,0,0,0,0,0,0,0,0,0,0,0,0],"split_type":[0,0,0,0,0,0,0,0,0,0,0,0,0,0,0,0,0,0,0,0,0,0,0,0,0,0,0,0,0,0,0,0,0,0,0,0,0,0,0,0,0,0,0,0,0],"sum_hessian":[9.64E2,6.96E2,2.68E2,6.09E2,8.7E1,1.76E2,9.2E1,2.3E2,3.79E2,3E1,5.7E1,6.4E1,1.12E2,3E1,6.2E1,1.02E2,1.28E2,1.95E2,1.84E2,9E0,2.1E1,4E0,5.3E1,3.7E1,2.7E1,3.8E1,7.4E1,8E0,5.4E1,3.8E1,6.4E1,1.62E2,3.3E1,7.2E1,1.12E2,1E0,8E0,1.5E1,6E0,1.5E1,3.8E1,3E1,7E0,1.7E1,5.7E1],"tree_param":{"num_deleted":"0","num_feature":"10","num_nodes":"45","size_leaf_vector":"1"}},{"base_weights":[7.812697E-1,-6.0974632E1,1.8452094E2,-7.7524734E1,3.6090828E1,1.3021776E2,2.8392899E1,-9.818674E1,-5.017441E1,-2.9824963E0,4.635982E1,1.05563545E2,1.6424748E2,-1.2135355E2,-8.820936E1,-6.274353E1,-4.1821167E1,-2.4319417E0,2.0765904E-1,3.7419205E1,5.6705494E1,6.0315695E0,1.1200143E2,1.00501E1,1.726978E1,-1.298735E1,-9.112624E0,-9.543063E0,-6.488988E0,-6.731712E0,-3.6898053E0,-5.004529E0,-3.3967113E0,-1.1922729E-1,1.4103149E0,1.9568115E0,3.8597302E0,2.5915337E0,6.4305696E0,1.1260237E1,3.1662843E0],"categories":[],"categories_nodes":[],"categories_segments":[],"categories_sizes":[],"default_left":[0,0,0,0,0,0,0,0,0,0,0,0,0,0,0,0,0,0,0,0,0,0,0,0,0,0,0,0,0,0,0,0,0,0,0,0,0,0,0,0,0],"id":13,"left_children":[1,3,5,7,9,11,-1,13,15,17,19,21,23,25,27,29,31,-1,33,35,37,-1,39,-1,-1,-1,-1,-1,-1,-1,-1,-1,-1,-1,-1,-1,-1,-1,-1,-1,-1],"loss_changes":[1.0961114E7,1.1642562E6,1.274783E6,3.44313E5,4.267011E4,1.160585E5,0E0,7.042725E4,2.5514125E4,1.5706162E3,5.6478594E3,2.0918125E4,1.765775E4,1.469125E4,3.573825E4,9.9278125E3,8.8933125E3,0E0,4.2532236E2,2.5417969E2,6.991914E3,0E0,3.935E2,0E0,0E0,0E0,0E0,0E0,0E0,0E0,0E0,0E0,0E0,0E0,0E0,0E0,0E0,0E0,0E0,0E0,0E0],"parents":[2147483647,0,0,1,1,2,2,3,3,4,4,5,5,7,7,8,8,9,9,10,10,11,11,12,12,13,13,14,14,15,15,16,16,18,18,19,19,20,20,22,22],"right_children":[2,4,6,8,10,12,-1,14,16,18,20,22,24,26,28,30,32,-1,34,36,38,-1,40,-1,-1,-1,-1,-1,-1,-1,-1,-1,-1,-1,-1,-1,-1,-1,-1,-1,-1],"split_conditions":[2.394965E3,2.03128E3,2.9238E3,1.9005394E3,2.16935E3,2.6588848E3,2.8392899E1,1.7185869E3,2.0644467E-1,5.5164856E1,5.744918E1,2.477427E3,4.61879E1,6.4610567E0,6.4137985E1,2.005495E3,-2.8103468E-1,-2.4319417E0,2.093632E3,-1.2909755E1,2.233005E3,6.0315695E0,2.693665E3,1.00501E1,1.726978E1,-1.298735E1,-9.112624E0,-9.543063E0,-6.488988E0,-6.731712E0,-3.6898053E0,-5.004529E0,-3.3967113E0,-1.1922729E-1,1.4103149E0,1.9568115E0,3.8597302E0,2.5915337E0,6.4305696E0,1.1260237E1,3.1662843E0],"split_indices":[0,1,0,2,0,2,0,8,4,3,3,7,3,6,3,0,6,0,8,6,0,0,0,0,0,0,0,0,0,0,0,0,0,0,0,0,0,0,0,0,0],"split_type":[0,0,0,0,0,0,0,0,0,0,0,0,0,0,0,0,0,0,0,0,0,0,0,0,0,0,0,0,0,0,0,0,0,0,0,0,0,0,0,0,0],"sum_hessian":[9.64E2,7.22E2,2.42E2,6.17E2,1.05E2,1.58E2,8.4E1,3.5E2,2.67E2,2.2E1,8.3E1,9.4E1,6.4E1,1.02E2,2.48E2,1.04E2,1.63E2,2E0,2E1,4.7E1,3.6E1,1.3E1,8.1E1,9E0,5.5E1,7.7E1,2.5E1,1.87E2,6.1E1,8.7E1,1.7E1,7.7E1,8.6E1,1.9E1,1E0,4E0,4.3E1,8E0,2.8E1,8E1,1E0],"tree_param":{"num_deleted":"0","num_feature":"10","num_nodes":"41","size_leaf_vector":"1"}},{"base_weights":[7.372613E-1,-5.8933857E1,1.5534705E2,-7.351589E1,5.8422046E0,9.542458E1,2.3476126E2,-9.7489685E1,-5.696291E1,-2.0917938E1,3.60161E1,5.9856087E1,1.1280036E2,1.8196228E1,2.66104E2,-1.13470276E2,-8.528519E1,-6.88639E1,-4.568141E1,-3.043109E1,-6.747003E0,8.373828E0,3.7809002E1,4.962633E1,7.555005E0,9.566129E1,1.2444859E1,1.4380269E1,2.7133738E1,-1.3328404E1,-1.043373E1,-1.0334773E1,-7.9592676E0,-7.902366E0,-5.908039E0,-5.9630117E0,-4.0328207E0,-3.1064396E0,-2.5494385E-1,-1.3840597E0,-1.6431071E-1,1.339795E0,3.7683105E-1,3.039143E0,4.4406075E0,3.0986166E0,5.400171E0,4.723035E0,9.794182E0],"categories":[],"categories_nodes":[],"categories_segments":[],"categories_sizes":[],"default_left":[0,0,0,0,0,0,0,0,0,0,0,0,0,0,0,0,0,0,0,0,0,0,0,0,0,0,0,0,0,0,0,0,0,0,0,0,0,0,0,0,0,0,0,0,0,0,0,0,0],"id":14,"left_children":[1,3,5,7,9,11,13,15,17,19,21,23,25,-1,27,29,31,33,35,37,39,41,43,45,-1,47,-1,-1,-1,-1,-1,-1,-1,-1,-1,-1,-1,-1,-1,-1,-1,-1,-1,-1,-1,-1,-1,-1,-1],"loss_changes":[8.911993E6,6.5879275E5,1.2576875E6,2.2024725E5,1.0491543E5,8.9042875E4,1.418885E5,3.537575E4,4.2368625E4,9.096592E3,2.706539E3,4.759625E3,8.658E3,0E0,5.784E3,3.6465E3,5.6550625E3,1.15331875E4,1.0811844E4,6.447656E2,1.0272024E3,6.520578E1,1.4396953E3,1.1812188E3,0E0,4.5478125E2,0E0,0E0,0E0,0E0,0E0,0E0,0E0,0E0,0E0,0E0,0E0,0E0,0E0,0E0,0E0,0E0,0E0,0E0,0E0,0E0,0E0,0E0,0E0],"parents":[2147483647,0,0,1,1,2,2,3,3,4,4,5,5,6,6,7,7,8,8,9,9,10,10,11,11,12,12,14,14,15,15,16,16,17,17,18,18,19,19,20,20,21,21,22,22,23,23,25,25],"right_children":[2,4,6,8,10,12,14,16,18,20,22,24,26,-1,28,30,32,34,36,38,40,42,44,46,-1,48,-1,-1,-1,-1,-1,-1,-1,-1,-1,-1,-1,-1,-1,-1,-1,-1,-1,-1,-1,-1,-1,-1,-1],"split_conditions":[2.3478042E3,2.01253E3,2.72615E3,1.8219858E3,2.145405E3,2.5477156E3,3.0271562E3,4.7072723E1,2.2040992E0,5.8049595E1,2.2361492E3,6.4137985E1,8.6648166E-1,1.8196228E1,-1.9882227E1,1.726705E3,1.6482488E3,1.8673248E3,1.9670226E3,2.042105E3,2.030752E3,2.217127E3,-1.1636221E0,2.279313E3,7.555005E0,2.7157019E1,1.2444859E1,1.4380269E1,2.7133738E1,-1.3328404E1,-1.043373E1,-1.0334773E1,-7.9592676E0,-7.902366E0,-5.908039E0,-5.9630117E0,-4.0328207E0,-3.1064396E0,-2.5494385E-1,-1.3840597E0,-1.6431071E-1,1.339795E0,3.7683105E-1,3.039143E0,4.4406075E0,3.0986166E0,5.400171E0,4.723035E0,9.794182E0],"split_indices":[2,0,0,2,0,7,2,3,4,3,7,3,6,0,6,0,8,8,7,0,1,7,6,8,0,3,0,0,0,0,0,0,0,0,0,0,0,0,0,0,0,0,0,0,0,0,0,0,0],"split_type":[0,0,0,0,0,0,0,0,0,0,0,0,0,0,0,0,0,0,0,0,0,0,0,0,0,0,0,0,0,0,0,0,0,0,0,0,0,0,0,0,0,0,0,0,0,0,0,0,0],"sum_hessian":[9.64E2,6.96E2,2.68E2,5.68E2,1.28E2,1.54E2,1.14E2,2.3E2,3.38E2,6.8E1,6E1,5.2E1,1.02E2,4.5E1,6.9E1,9.6E1,1.34E2,1.62E2,1.76E2,4E1,2.8E1,4E0,5.6E1,3.4E1,1.8E1,4.5E1,5.7E1,4E0,6.5E1,2.6E1,7E1,2.8E1,1.06E2,7.6E1,8.6E1,4.6E1,1.3E2,3.9E1,1E0,1.1E1,1.7E1,1E0,3E0,2.9E1,2.7E1,8E0,2.6E1,3E0,4.2E1],"tree_param":{"num_deleted":"0","num_feature":"10","num_nodes":"49","size_leaf_vector":"1"}},{"base_weights":[7.061692E-1,-4.953329E1,1.5018115E2,-6.2700806E1,3.124837E1,1.0590703E2,2.3123299E2,-7.9810165E1,-4.0391674E1,3.800325E0,3.8749077E1,8.813536E1,1.3883092E2,1.6788591E1,2.4135936E2,-9.361904E1,-6.802041E1,-5.0044224E1,-3.278269E1,-5.626492E-1,1.625586E1,3.0266642E1,4.9912952E1,6.660838E1,9.9185616E1,8.34072E0,1.4531089E1,1.6254446E1,2.5017857E1,-1.0658408E1,-8.137449E0,-8.070812E0,-5.7287416E0,-5.488545E0,-2.9839454E0,-4.116794E0,-2.5576286E0,-2.1650544E-1,8.171062E-1,1.8166602E0,3.3510742E-1,1.3202393E0,3.1110873E0,2.179297E0,5.304009E0,4.886846E0,7.4588E0,7.1345363E0,1.05082245E1],"categories":[],"categories_nodes":[],"categories_segments":[],"categories_sizes":[],"default_left":[0,0,0,0,0,0,0,0,0,0,0,0,0,0,0,0,0,0,0,0,0,0,0,0,0,0,0,0,0,0,0,0,0,0,0,0,0,0,0,0,0,0,0,0,0,0,0,0,0],"id":15,"left_children":[1,3,5,7,9,11,13,15,17,19,21,23,25,-1,27,29,31,33,35,37,39,41,43,45,47,-1,-1,-1,-1,-1,-1,-1,-1,-1,-1,-1,-1,-1,-1,-1,-1,-1,-1,-1,-1,-1,-1,-1,-1],"loss_changes":[7.254148E6,7.7101025E5,8.47516E5,2.341905E5,2.0852492E4,8.0796875E4,1.40045E4,5.077575E4,1.833675E4,1.2590393E3,6.065047E3,1.8608562E4,7.27375E3,0E0,8.68575E3,1.656825E4,2.1658562E4,9.904531E3,8.313328E3,2.6959976E2,8.706885E1,2.807539E2,1.7459531E3,1.87575E3,3.666E3,0E0,0E0,0E0,0E0,0E0,0E0,0E0,0E0,0E0,0E0,0E0,0E0,0E0,0E0,0E0,0E0,0E0,0E0,0E0,0E0,0E0,0E0,0E0,0E0],"parents":[2147483647,0,0,1,1,2,2,3,3,4,4,5,5,6,6,7,7,8,8,9,9,10,10,11,11,12,12,14,14,15,15,16,16,17,17,18,18,19,19,20,20,21,21,22,22,23,23,24,24],"right_children":[2,4,6,8,10,12,14,16,18,20,22,24,26,-1,28,30,32,34,36,38,40,42,44,46,48,-1,-1,-1,-1,-1,-1,-1,-1,-1,-1,-1,-1,-1,-1,-1,-1,-1,-1,-1,-1,-1,-1,-1,-1],"split_conditions":[2.394965E3,2.042105E3,2.9238E3,1.9005394E3,2.19987E3,2.6772493E3,-1.1479687E1,1.7898556E3,2.2040992E0,2.093632E3,5.744918E1,2.537545E3,4.61879E1,1.6788591E1,2.8536912E3,4.74918E1,1.8879843E-1,2.005495E3,-2.8103468E-1,1.5474535E1,2.1170015E3,-5.759097E0,2.233005E3,1.9816957E1,-4.817429E0,8.34072E0,1.4531089E1,1.6254446E1,2.5017857E1,-1.0658408E1,-8.137449E0,-8.070812E0,-5.7287416E0,-5.488545E0,-2.9839454E0,-4.116794E0,-2.5576286E0,-2.1650544E-1,8.171062E-1,1.8166602E0,3.3510742E-1,1.3202393E0,3.1110873E0,2.179297E0,5.304009E0,4.886846E0,7.4588E0,7.1345363E0,1.05082245E1],"split_indices":[0,0,0,2,0,2,6,2,4,8,3,0,3,0,8,3,6,0,6,6,8,4,0,4,6,0,0,0,0,0,0,0,0,0,0,0,0,0,0,0,0,0,0,0,0,0,0,0,0],"split_type":[0,0,0,0,0,0,0,0,0,0,0,0,0,0,0,0,0,0,0,0,0,0,0,0,0,0,0,0,0,0,0,0,0,0,0,0,0,0,0,0,0,0,0,0,0,0,0,0,0],"sum_hessian":[9.64E2,7.22E2,2.42E2,6.21E2,1.01E2,1.58E2,8.4E1,3.5E2,2.71E2,2.2E1,7.9E1,1.05E2,5.3E1,1.4E1,7E1,1.58E2,1.92E2,1.17E2,1.54E2,1.7E1,5E0,4.7E1,3.2E1,3.8E1,6.7E1,7E0,4.6E1,9E0,6.1E1,7.3E1,8.5E1,8.5E1,1.07E2,9.3E1,2.4E1,6.9E1,8.5E1,1.5E1,2E0,4E0,1E0,3E0,4.4E1,4E0,2.8E1,1.4E1,2.4E1,1.4E1,5.3E1],"tree_param":{"num_deleted":"0","num_feature":"10","num_nodes":"49","size_leaf_vector":"1"}},{"base_weights":[7.1622664E-1,-4.7881218E1,1.2663334E2,-5.979347E1,5.033129E0,8.012142E1,1.9522868E2,-8.000758E1,-4.6630524E1,-1.6541412E1,2.9354609E1,5.321731E1,9.714842E1,1.55425E2,2.2119283E2,-9.7733246E1,-7.272981E1,-5.4562943E1,-3.559597E1,-2.4450445E1,-4.7892814E0,1.2200836E1,3.1352304E1,4.2548164E1,6.7584567E0,8.050407E1,1.1151692E1,8.332164E0,1.6030813E1,1.6337885E1,2.3437683E1,-1.0254993E1,-6.2431498E0,-7.772199E0,-5.439424E0,-6.6611633E0,-4.507816E0,-4.523707E0,-2.7711835E0,-2.719805E0,-1.448443E0,-9.222005E-1,-3.7272137E-3,2.55778E-1,1.4988892E0,2.5480378E0,4.006056E0,3.1239734E0,5.038053E0,3.8035524E0,8.244689E0],"categories":[],"categories_nodes":[],"categories_segments":[],"categories_sizes":[],"default_left":[0,0,0,0,0,0,0,0,0,0,0,0,0,0,0,0,0,0,0,0,0,0,0,0,0,0,0,0,0,0,0,0,0,0,0,0,0,0,0,0,0,0,0,0,0,0,0,0,0,0,0],"id":16,"left_children":[1,3,5,7,9,11,13,15,17,19,21,23,25,27,29,31,33,35,37,39,41,43,45,47,-1,49,-1,-1,-1,-1,-1,-1,-1,-1,-1,-1,-1,-1,-1,-1,-1,-1,-1,-1,-1,-1,-1,-1,-1,-1,-1],"loss_changes":[5.9111395E6,4.3964012E5,8.42603E5,1.4766725E5,6.817506E4,6.9041625E4,7.72355E4,2.1659625E4,2.8431E4,6.2963125E3,1.7078281E3,7.0880156E3,1.44595625E4,2.839125E3,9.72775E3,4.14E3,1.0600875E4,1.9853062E4,9.996125E3,7.2874023E2,6.105224E2,1.7674475E2,1.7404883E3,1.969E3,0E0,9.070625E2,0E0,0E0,0E0,0E0,0E0,0E0,0E0,0E0,0E0,0E0,0E0,0E0,0E0,0E0,0E0,0E0,0E0,0E0,0E0,0E0,0E0,0E0,0E0,0E0,0E0],"parents":[2147483647,0,0,1,1,2,2,3,3,4,4,5,5,6,6,7,7,8,8,9,9,10,10,11,11,12,12,13,13,14,14,15,15,16,16,17,17,18,18,19,19,20,20,21,21,22,22,23,23,25,25],"right_children":[2,4,6,8,10,12,14,16,18,20,22,24,26,28,30,32,34,36,38,40,42,44,46,48,-1,50,-1,-1,-1,-1,-1,-1,-1,-1,-1,-1,-1,-1,-1,-1,-1,-1,-1,-1,-1,-1,-1,-1,-1,-1,-1],"split_conditions":[2.3478042E3,2.01253E3,2.798075E3,1.8176266E3,2.145405E3,2.537545E3,3.092845E3,1.7369735E3,5.468496E1,5.8049595E1,2.19987E3,6.4137985E1,5.9488358E1,4.5740963E1,-1.0497524E1,9.1623E0,6.902891E0,1.8673248E3,1.9670226E3,4.692319E0,3.533765E0,5.9765896E1,2.6350024E-1,2.394965E3,6.7584567E0,2.7157019E1,1.1151692E1,8.332164E0,1.6030813E1,1.6337885E1,2.3437683E1,-1.0254993E1,-6.2431498E0,-7.772199E0,-5.439424E0,-6.6611633E0,-4.507816E0,-4.523707E0,-2.7711835E0,-2.719805E0,-1.448443E0,-9.222005E-1,-3.7272137E-3,2.55778E-1,1.4988892E0,2.5480378E0,4.006056E0,3.1239734E0,5.038053E0,3.8035524E0,8.244689E0],"split_indices":[2,0,0,2,0,0,0,2,3,3,0,3,3,3,6,6,4,8,7,4,6,3,6,0,0,3,0,0,0,0,0,0,0,0,0,0,0,0,0,0,0,0,0,0,0,0,0,0,0,0,0],"split_type":[0,0,0,0,0,0,0,0,0,0,0,0,0,0,0,0,0,0,0,0,0,0,0,0,0,0,0,0,0,0,0,0,0,0,0,0,0,0,0,0,0,0,0,0,0,0,0,0,0,0,0],"sum_hessian":[9.64E2,6.96E2,2.68E2,5.68E2,1.28E2,1.61E2,1.07E2,2.22E2,3.46E2,6.8E1,6E1,6.4E1,9.7E1,4.5E1,6.2E1,6.1E1,1.61E2,1.99E2,1.47E2,4E1,2.8E1,7E0,5.3E1,3.9E1,2.5E1,4.8E1,4.9E1,4E0,4.1E1,1.4E1,4.8E1,5.2E1,9E0,1.24E2,3.7E1,8.5E1,1.14E2,6.4E1,8.3E1,3E1,1E1,1.4E1,1.4E1,2E0,5E0,3.4E1,1.9E1,1.8E1,2.1E1,3E0,4.5E1],"tree_param":{"num_deleted":"0","num_feature":"10","num_nodes":"51","size_leaf_vector":"1"}},{"base_weights":[7.03984E-1,-4.31576E1,1.1435016E2,-5.3898777E1,4.5547037E0,7.815854E1,1.8666849E2,-7.16218E1,-4.1663033E1,-1.4961123E1,2.6555315E1,4.812507E1,9.417578E1,1.4933669E2,1.9970485E2,-8.36977E1,-6.193081E1,-5.0597668E1,-3.3199707E1,-2.37542E1,-6.2409635E0,8.47823E0,2.8017944E1,3.8497356E1,6.1085964E1,8.492229E1,1.218755E1,5.8585696E0,1.5425333E1,1.2960652E1,2.0754448E1,-1.0031043E1,-7.650525E0,-7.6856194E0,-5.7173433E0,-6.333401E0,-4.5506024E0,-3.717894E0,-2.234887E0,-2.456598E0,-1.1524353E0,-1.2968221E0,-1.3705167E-1,2.387207E-1,1.0926942E0,2.017425E0,3.2147756E0,2.8280132E0,4.5571446E0,3.3471487E0,6.458535E0,6.470053E0,9.20156E0],"categories":[],"categories_nodes":[],"categories_segments":[],"categories_sizes":[],"default_left":[0,0,0,0,0,0,0,0,0,0,0,0,0,0,0,0,0,0,0,0,0,0,0,0,0,0,0,0,0,0,0,0,0,0,0,0,0,0,0,0,0,0,0,0,0,0,0,0,0,0,0,0,0],"id":17,"left_children":[1,3,5,7,9,11,13,15,17,19,21,23,25,27,29,31,33,35,37,39,41,43,45,47,49,51,-1,-1,-1,-1,-1,-1,-1,-1,-1,-1,-1,-1,-1,-1,-1,-1,-1,-1,-1,-1,-1,-1,-1,-1,-1,-1,-1],"loss_changes":[4.8151715E6,3.5744838E5,6.89469E5,1.20406125E5,5.5784754E4,8.25385E4,1.349025E4,2.185E4,2.395425E4,5.1424688E3,1.3752969E3,5.7592812E3,1.9639375E4,3.0101875E3,7.7225E3,4.274375E3,4.978625E3,7.6883125E3,6.8116094E3,5.444336E1,1.1617578E3,6.3406067E1,1.1654492E3,1.602332E3,3.5071094E2,7.0995E3,0E0,0E0,0E0,0E0,0E0,0E0,0E0,0E0,0E0,0E0,0E0,0E0,0E0,0E0,0E0,0E0,0E0,0E0,0E0,0E0,0E0,0E0,0E0,0E0,0E0,0E0,0E0],"parents":[2147483647,0,0,1,1,2,2,3,3,4,4,5,5,6,6,7,7,8,8,9,9,10,10,11,11,12,12,13,13,14,14,15,15,16,16,17,17,18,18,19,19,20,20,21,21,22,22,23,23,24,24,25,25],"right_children":[2,4,6,8,10,12,14,16,18,20,22,24,26,28,30,32,34,36,38,40,42,44,46,48,50,52,-1,-1,-1,-1,-1,-1,-1,-1,-1,-1,-1,-1,-1,-1,-1,-1,-1,-1,-1,-1,-1,-1,-1,-1,-1,-1,-1],"split_conditions":[2.3478042E3,2.01253E3,2.909525E3,1.8219858E3,2.145405E3,2.537545E3,3.092845E3,4.768349E1,2.2040992E0,4.692319E0,2.2387292E3,6.4137985E1,2.72615E3,4.1215332E1,-1.5124751E1,1.726705E3,1.6482488E3,-5.680482E0,1.97154E3,5.8049595E1,4.412979E-1,5.9765896E1,4.9888042E1,2.394965E3,1.9605143E1,-3.2948937E0,1.218755E1,5.8585696E0,1.5425333E1,1.2960652E1,2.0754448E1,-1.0031043E1,-7.650525E0,-7.6856194E0,-5.7173433E0,-6.333401E0,-4.5506024E0,-3.717894E0,-2.234887E0,-2.456598E0,-1.1524353E0,-1.2968221E0,-1.3705167E-1,2.387207E-1,1.0926942E0,2.017425E0,3.2147756E0,2.8280132E0,4.5571446E0,3.3471487E0,6.458535E0,6.470053E0,9.20156E0],"split_indices":[2,0,0,2,0,0,0,3,4,4,7,3,0,3,6,0,8,6,0,3,6,3,3,0,4,6,0,0,0,0,0,0,0,0,0,0,0,0,0,0,0,0,0,0,0,0,0,0,0,0,0,0,0],"split_type":[0,0,0,0,0,0,0,0,0,0,0,0,0,0,0,0,0,0,0,0,0,0,0,0,0,0,0,0,0,0,0,0,0,0,0,0,0,0,0,0,0,0,0,0,0,0,0,0,0,0,0,0,0],"sum_hessian":[9.64E2,6.96E2,2.68E2,5.68E2,1.28E2,1.8E2,8.8E1,2.3E2,3.38E2,6.8E1,6E1,6.4E1,1.16E2,2.6E1,6.2E1,9.9E1,1.31E2,1.62E2,1.76E2,3.3E1,3.5E1,5E0,5.5E1,3.9E1,2.5E1,9E1,2.6E1,2E0,2.4E1,8E0,5.4E1,2.6E1,7.3E1,2.8E1,1.03E2,4.3E1,1.19E2,1.27E2,4.9E1,3E1,3E0,1.4E1,2.1E1,2E0,3E0,2.1E1,3.4E1,1.8E1,2.1E1,4E0,2.1E1,2.6E1,6.4E1],"tree_param":{"num_deleted":"0","num_feature":"10","num_nodes":"53","size_leaf_vector":"1"}},{"base_weights":[6.8917346E-1,-3.5146603E1,1.1406319E2,-4.5947037E1,2.4614609E1,8.0749596E1,1.707261E2,-5.869666E1,-2.932548E1,3.2545538E0,2.9742813E1,6.827932E1,1.0382577E2,1.288436E2,1.7930197E2,-7.971593E1,-5.400048E1,-3.718453E1,-2.3676172E1,1.1796061E-1,1.2121907E1,2.3248087E1,3.6452087E1,5.3962307E1,7.289872E1,5.0133486E0,1.0618627E1,1.3219833E2,3.5906618E0,1.19605055E1,1.8638107E1,-8.3217125E0,-4.5680666E0,-6.8625464E0,-4.8102274E0,-4.683248E0,-3.1388597E0,-2.8831565E0,-1.3216116E0,-1.3148041E-1,7.7200526E-1,1.3791212E0,1.8876953E-1,2.6031184E0,1.353865E0,1.6873047E0,3.9790425E0,2.7466736E0,5.6043105E0,5.125543E0,7.76951E0,8.046566E0,1.4704814E1],"categories":[],"categories_nodes":[],"categories_segments":[],"categories_sizes":[],"default_left":[0,0,0,0,0,0,0,0,0,0,0,0,0,0,0,0,0,0,0,0,0,0,0,0,0,0,0,0,0,0,0,0,0,0,0,0,0,0,0,0,0,0,0,0,0,0,0,0,0,0,0,0,0],"id":18,"left_children":[1,3,5,7,9,11,13,15,17,19,21,23,25,27,29,31,33,35,37,39,41,43,45,47,49,-1,-1,51,-1,-1,-1,-1,-1,-1,-1,-1,-1,-1,-1,-1,-1,-1,-1,-1,-1,-1,-1,-1,-1,-1,-1,-1,-1],"loss_changes":[3.9246552E6,4.748892E5,4.2414775E5,1.30092E5,1.228107E4,3.5500312E4,7.42825E3,3.0342625E4,1.1195906E4,6.382756E2,3.1178828E3,2.6137188E3,1.0135E3,8.651875E2,6.4445E3,3.5867812E3,2.1714688E4,4.7929062E3,8.300992E3,2.0620651E2,7.64704E1,9.71666E2,2.1391562E3,4.375E0,3.4919375E3,0E0,0E0,1.2274375E3,0E0,0E0,0E0,0E0,0E0,0E0,0E0,0E0,0E0,0E0,0E0,0E0,0E0,0E0,0E0,0E0,0E0,0E0,0E0,0E0,0E0,0E0,0E0,0E0,0E0],"parents":[2147483647,0,0,1,1,2,2,3,3,4,4,5,5,6,6,7,7,8,8,9,9,10,10,11,11,12,12,13,13,14,14,15,15,16,16,17,17,18,18,19,19,20,20,21,21,22,22,23,23,24,24,27,27],"right_children":[2,4,6,8,10,12,14,16,18,20,22,24,26,28,30,32,34,36,38,40,42,44,46,48,50,-1,-1,52,-1,-1,-1,-1,-1,-1,-1,-1,-1,-1,-1,-1,-1,-1,-1,-1,-1,-1,-1,-1,-1,-1,-1,-1,-1],"split_conditions":[2.41369E3,2.042105E3,2.9238E3,1.9005394E3,2.19987E3,2.684654E3,-1.0497524E1,1.7369735E3,-2.4962866E0,2.093632E3,-9.270967E-1,2.537545E3,-1.2909755E1,6.2466785E1,2.8536912E3,9.4814415E0,-3.2948937E0,1.948165E3,1.9761445E3,1.5474535E1,2.1170015E3,1.7742147E1,2.3669478E3,1.9816957E1,-4.817429E0,5.0133486E0,1.0618627E1,4.1215332E1,3.5906618E0,1.19605055E1,1.8638107E1,-8.3217125E0,-4.5680666E0,-6.8625464E0,-4.8102274E0,-4.683248E0,-3.1388597E0,-2.8831565E0,-1.3216116E0,-1.3148041E-1,7.7200526E-1,1.3791212E0,1.8876953E-1,2.6031184E0,1.353865E0,1.6873047E0,3.9790425E0,2.7466736E0,5.6043105E0,5.125543E0,7.76951E0,8.046566E0,1.4704814E1],"split_indices":[0,0,0,2,0,2,6,2,6,8,6,0,6,4,8,6,6,0,2,6,8,4,7,4,6,0,0,3,0,0,0,0,0,0,0,0,0,0,0,0,0,0,0,0,0,0,0,0,0,0,0,0,0],"split_type":[0,0,0,0,0,0,0,0,0,0,0,0,0,0,0,0,0,0,0,0,0,0,0,0,0,0,0,0,0,0,0,0,0,0,0,0,0,0,0,0,0,0,0,0,0,0,0,0,0,0,0,0,0],"sum_hessian":[9.64E2,7.33E2,2.31E2,6.21E2,1.12E2,1.47E2,8.4E1,3.5E2,2.71E2,2.2E1,9E1,9.8E1,4.9E1,1.7E1,6.7E1,6.1E1,2.89E2,1.11E2,1.6E2,1.7E1,5E0,4.8E1,4.2E1,2.7E1,7.1E1,3E0,4.6E1,1.6E1,1E0,9E0,5.8E1,5.4E1,7E0,8E1,2.09E2,3.9E1,7.2E1,1.06E2,5.4E1,1.5E1,2E0,4E0,1E0,3.6E1,1.2E1,7E0,3.5E1,3E0,2.4E1,1.5E1,5.6E1,5E0,1.1E1],"tree_param":{"num_deleted":"0","num_feature":"10","num_nodes":"53","size_leaf_vector":"1"}},{"base_weights":[6.918175E-1,-3.5072575E1,9.3357574E1,-4.727687E1,-6.929361E0,5.7028816E1,1.4151062E2,-6.098169E1,-3.8119366E1,-1.8895908E1,2.042415E1,3.6029182E1,6.728078E1,1.1294625E2,1.6329478E2,-6.84126E1,-5.15297E1,-4.481318E1,-2.8710825E1,-2.2382744E1,1.0274498E0,7.0820518E0,2.3010838E1,2.9415363E1,4.83046E1,5.6018696E1,7.6462685E1,6.2444725E0,1.1579444E1,1.2126409E2,1.7282877E1,-8.199831E0,-6.214966E0,-6.901316E0,-4.8700147E0,-5.0324416E0,-3.5366325E0,-3.28228E0,-2.067125E0,-3.196076E0,-1.9447721E0,6.632952E-1,-1.3411362E-1,8.027751E-2,1.1452568E0,1.7735533E0,2.8865988E0,1.7417042E0,3.264993E0,2.4817567E0,5.1564856E0,2.1386313E0,5.7016163E0,5.8409605E0,8.386673E0,1.2505278E1,3.4111328E0],"categories":[],"categories_nodes":[],"categories_segments":[],"categories_sizes":[],"default_left":[0,0,0,0,0,0,0,0,0,0,0,0,0,0,0,0,0,0,0,0,0,0,0,0,0,0,0,0,0,0,0,0,0,0,0,0,0,0,0,0,0,0,0,0,0,0,0,0,0,0,0,0,0,0,0,0,0],"id":19,"left_children":[1,3,5,7,9,11,13,15,17,19,21,23,25,27,29,31,33,35,37,39,41,43,45,47,49,51,53,-1,-1,55,-1,-1,-1,-1,-1,-1,-1,-1,-1,-1,-1,-1,-1,-1,-1,-1,-1,-1,-1,-1,-1,-1,-1,-1,-1,-1,-1],"loss_changes":[3.2014142E6,2.3906962E5,4.625025E5,5.8669375E4,6.977927E4,3.0945438E4,5.311525E4,1.00305E4,1.7229219E4,1.0304484E4,2.0803047E3,2.882039E3,6.3675938E3,3.926875E2,4.2875E3,3.8379062E3,1.0419219E3,7.0710938E3,3.4538203E3,2.9205078E3,3.1426935E2,3.201303E2,1.1559824E3,8.6728125E2,2.2035156E1,5.0785938E2,2.3193438E3,0E0,0E0,6.871875E2,0E0,0E0,0E0,0E0,0E0,0E0,0E0,0E0,0E0,0E0,0E0,0E0,0E0,0E0,0E0,0E0,0E0,0E0,0E0,0E0,0E0,0E0,0E0,0E0,0E0,0E0,0E0],"parents":[2147483647,0,0,1,1,2,2,3,3,4,4,5,5,6,6,7,7,8,8,9,9,10,10,11,11,12,12,13,13,14,14,15,15,16,16,17,17,18,18,19,19,20,20,21,21,22,22,23,23,24,24,25,25,26,26,29,29],"right_children":[2,4,6,8,10,12,14,16,18,20,22,24,26,28,30,32,34,36,38,40,42,44,46,48,50,52,54,-1,-1,56,-1,-1,-1,-1,-1,-1,-1,-1,-1,-1,-1,-1,-1,-1,-1,-1,-1,-1,-1,-1,-1,-1,-1,-1,-1,-1,-1],"split_conditions":[2.3478042E3,1.9543951E3,2.72615E3,1.8034672E3,2.0046575E3,2.4866099E3,3.092845E3,5.3287605E1,5.468496E1,3.0999632E0,2.19987E3,6.639126E1,1.0566704E0,4.5740963E1,-1.0497524E1,1.726705E3,1.7386921E3,1.8673248E3,7.217903E1,-5.6306796E0,1.945266E3,3.2667904E1,-7.057364E-1,2.279313E3,1.9605143E1,2.5132452E1,2.6421992E3,6.2444725E0,1.1579444E1,6.2466785E1,1.7282877E1,-8.199831E0,-6.214966E0,-6.901316E0,-4.8700147E0,-5.0324416E0,-3.5366325E0,-3.28228E0,-2.067125E0,-3.196076E0,-1.9447721E0,6.632952E-1,-1.3411362E-1,8.027751E-2,1.1452568E0,1.7735533E0,2.8865988E0,1.7417042E0,3.264993E0,2.4817567E0,5.1564856E0,2.1386313E0,5.7016163E0,5.8409605E0,8.386673E0,1.2505278E1,3.4111328E0],"split_indices":[2,2,0,2,8,0,0,3,3,6,0,3,6,3,6,0,7,8,3,6,1,4,6,8,4,3,2,0,0,4,0,0,0,0,0,0,0,0,0,0,0,0,0,0,0,0,0,0,0,0,0,0,0,0,0,0,0],"split_type":[0,0,0,0,0,0,0,0,0,0,0,0,0,0,0,0,0,0,0,0,0,0,0,0,0,0,0,0,0,0,0,0,0,0,0,0,0,0,0,0,0,0,0,0,0,0,0,0,0,0,0,0,0,0,0,0,0],"sum_hessian":[9.64E2,6.96E2,2.68E2,4.85E2,2.11E2,1.54E2,1.14E2,1.92E2,2.93E2,1.47E2,6.4E1,5.2E1,1.02E2,5.2E1,6.2E1,1.04E2,8.8E1,1.69E2,1.24E2,1.25E2,2.2E1,1.1E1,5.3E1,3.6E1,1.6E1,4.9E1,5.3E1,4E0,4.8E1,1.4E1,4.8E1,2.9E1,7.5E1,9E0,7.9E1,1.04E2,6.5E1,8E1,4.4E1,2.7E1,9.8E1,6E0,1.6E1,5E0,6E0,3E1,2.3E1,9E0,2.7E1,3E0,1.3E1,2E0,4.7E1,1.8E1,3.5E1,1.3E1,1E0],"tree_param":{"num_deleted":"0","num_feature":"10","num_nodes":"57","size_leaf_vector":"1"}},{"base_weights":[6.712404E-1,-3.1954407E1,8.348773E1,-4.263171E1,-6.852849E0,5.6769367E1,1.3808783E2,-5.5019207E1,-3.4354774E1,-1.8036186E1,1.5937299E1,3.5841248E1,6.948915E1,1.11029976E2,1.4749219E2,-7.001625E1,-5.0890797E1,-4.169088E1,-2.693581E1,-2.0717562E1,-1.855184E0,4.061694E0,2.0368793E1,2.6712349E1,4.641761E1,5.0981052E1,7.80724E1,6.822572E1,1.2001092E1,7.6323776E0,1.5102355E1,-7.7759805E0,-4.8547616E0,-6.0663652E0,-4.659708E0,-4.6628814E0,-3.1867902E0,-3.2500691E0,-1.9639975E0,-2.9129531E0,-1.7962157E0,-8.2268065E-1,1.9182566E-1,1.3289389E-1,1.0216634E0,1.8494427E0,3.3539207E0,1.1117371E0,2.9596097E0,2.8927155E0,5.015785E0,5.581434E0,3.7021072E0,5.211037E0,8.260249E0,7.5136194E0,1.338147E0],"categories":[],"categories_nodes":[],"categories_segments":[],"categories_sizes":[],"default_left":[0,0,0,0,0,0,0,0,0,0,0,0,0,0,0,0,0,0,0,0,0,0,0,0,0,0,0,0,0,0,0,0,0,0,0,0,0,0,0,0,0,0,0,0,0,0,0,0,0,0,0,0,0,0,0,0,0],"id":20,"left_children":[1,3,5,7,9,11,13,15,17,19,21,23,25,27,29,31,33,35,37,39,41,43,45,47,49,51,53,55,-1,-1,-1,-1,-1,-1,-1,-1,-1,-1,-1,-1,-1,-1,-1,-1,-1,-1,-1,-1,-1,-1,-1,-1,-1,-1,-1,-1,-1],"loss_changes":[2.6100415E6,1.8544356E5,3.9042025E5,4.7939625E4,5.330039E4,4.6756688E4,6.271E3,8.3861875E3,1.4878375E4,6.035793E3,3.5485098E3,5.711711E3,1.41298125E4,2.1915625E3,4.3065E3,2.7084688E3,3.677375E3,5.5957812E3,5.4111562E3,2.2581797E3,5.2068286E2,3.228216E2,6.140215E2,1.5148203E3,6.4246875E2,5.651328E2,4.6339688E3,1.6475645E3,0E0,0E0,0E0,0E0,0E0,0E0,0E0,0E0,0E0,0E0,0E0,0E0,0E0,0E0,0E0,0E0,0E0,0E0,0E0,0E0,0E0,0E0,0E0,0E0,0E0,0E0,0E0,0E0,0E0],"parents":[2147483647,0,0,1,1,2,2,3,3,4,4,5,5,6,6,7,7,8,8,9,9,10,10,11,11,12,12,13,13,14,14,15,15,16,16,17,17,18,18,19,19,20,20,21,21,22,22,23,23,24,24,25,25,26,26,27,27],"right_children":[2,4,6,8,10,12,14,16,18,20,22,24,26,28,30,32,34,36,38,40,42,44,46,48,50,52,54,56,-1,-1,-1,-1,-1,-1,-1,-1,-1,-1,-1,-1,-1,-1,-1,-1,-1,-1,-1,-1,-1,-1,-1,-1,-1,-1,-1,-1,-1],"split_conditions":[2.3425115E3,1.9543951E3,2.909525E3,1.8034672E3,2.05563E3,2.559825E3,3.092845E3,1.7635975E3,5.741897E-1,2.2811635E0,2.19987E3,6.218987E1,6.4631195E0,5.190575E1,-1.9882227E1,3.533765E0,3.851941E1,1.9217444E3,1.9508926E3,-2.6237342E0,3.863824E0,2.093632E3,6.3701607E1,4.3998627E1,2.2610533E1,-3.3140426E0,2.564018E3,3.0271562E3,1.2001092E1,7.6323776E0,1.5102355E1,-7.7759805E0,-4.8547616E0,-6.0663652E0,-4.659708E0,-4.6628814E0,-3.1867902E0,-3.2500691E0,-1.9639975E0,-2.9129531E0,-1.7962157E0,-8.2268065E-1,1.9182566E-1,1.3289389E-1,1.0216634E0,1.8494427E0,3.3539207E0,1.1117371E0,2.9596097E0,2.8927155E0,5.015785E0,5.581434E0,3.7021072E0,5.211037E0,8.260249E0,7.5136194E0,1.338147E0],"split_indices":[2,2,0,2,0,0,0,7,6,6,0,3,4,3,6,6,3,2,7,4,6,8,4,3,4,5,8,2,0,0,0,0,0,0,0,0,0,0,0,0,0,0,0,0,0,0,0,0,0,0,0,0,0,0,0,0,0],"split_type":[0,0,0,0,0,0,0,0,0,0,0,0,0,0,0,0,0,0,0,0,0,0,0,0,0,0,0,0,0,0,0,0,0,0,0,0,0,0,0,0,0,0,0,0,0,0,0,0,0,0,0,0,0,0,0,0,0],"sum_hessian":[9.64E2,6.92E2,2.72E2,4.85E2,2.07E2,1.84E2,8.8E1,1.92E2,2.93E2,1.39E2,6.8E1,7.1E1,1.13E2,2.6E1,6.2E1,3.8E1,1.54E2,1.45E2,1.48E2,1.19E2,2E1,1.9E1,4.9E1,4E1,3.1E1,3.8E1,7.5E1,6E0,2E1,4E0,5.8E1,2.6E1,1.2E1,4.3E1,1.11E2,9.4E1,5.1E1,8.2E1,6.6E1,2.7E1,9.2E1,7E0,1.3E1,1.4E1,5E0,4.5E1,4E0,7E0,3.3E1,7E0,2.4E1,2.6E1,1.2E1,1.3E1,6.2E1,5E0,1E0],"tree_param":{"num_deleted":"0","num_feature":"10","num_nodes":"57","size_leaf_vector":"1"}},{"base_weights":[6.4859337E-1,-2.657866E1,8.16554E1,-3.4778847E1,1.1449947E1,5.6373127E1,1.2476887E2,-4.7218647E1,-2.5936077E1,-5.9642363E0,1.9925348E1,4.7023754E1,7.2989105E1,1.1158702E2,1.4375663E1,-5.2631542E1,-3.6901947E1,-3.421556E1,-2.0514463E1,-1.0991333E1,-1.1149637E0,1.539073E1,2.5637247E1,3.34647E1,5.1222054E1,3.682614E0,7.759155E0,5.7860274E0,1.1564036E1,-6.1928496E0,-4.6371484E0,-4.159807E0,-3.1920266E0,-4.0302043E0,-2.799007E0,-2.912253E0,-1.7427227E0,-1.3261583E0,-1.07421875E-1,-2.2506104E-1,7.2062176E-1,1.7599823E0,7.5795525E-1,1.3218297E0,3.1813416E0,1.3965149E0,3.5320263E0,4.2022305E0,5.5433707E0],"categories":[],"categories_nodes":[],"categories_segments":[],"categories_sizes":[],"default_left":[0,0,0,0,0,0,0,0,0,0,0,0,0,0,0,0,0,0,0,0,0,0,0,0,0,0,0,0,0,0,0,0,0,0,0,0,0,0,0,0,0,0,0,0,0,0,0,0,0],"id":21,"left_children":[1,3,5,7,9,11,13,15,17,19,21,23,25,27,-1,29,31,33,35,37,39,41,43,45,47,-1,-1,-1,-1,-1,-1,-1,-1,-1,-1,-1,-1,-1,-1,-1,-1,-1,-1,-1,-1,-1,-1,-1,-1],"loss_changes":[2.1305675E6,2.2585975E5,2.5783788E5,6.4226688E4,1.9158232E4,2.0646906E4,6.23475E3,1.17951875E4,1.5008969E4,1.0359888E3,1.8588359E3,4.0922188E3,6.1302188E3,5.7220625E3,0E0,6.382E3,7.3090625E2,4.0630625E3,5.179547E3,4.5855518E2,2.3356659E2,7.4663574E2,2.4174375E3,4.8367773E2,6.1525E2,0E0,0E0,0E0,0E0,0E0,0E0,0E0,0E0,0E0,0E0,0E0,0E0,0E0,0E0,0E0,0E0,0E0,0E0,0E0,0E0,0E0,0E0,0E0,0E0],"parents":[2147483647,0,0,1,1,2,2,3,3,4,4,5,5,6,6,7,7,8,8,9,9,10,10,11,11,12,12,13,13,15,15,16,16,17,17,18,18,19,19,20,20,21,21,22,22,23,23,24,24],"right_children":[2,4,6,8,10,12,14,16,18,20,22,24,26,28,-1,30,32,34,36,38,40,42,44,46,48,-1,-1,-1,-1,-1,-1,-1,-1,-1,-1,-1,-1,-1,-1,-1,-1,-1,-1,-1,-1,-1,-1,-1,-1],"split_conditions":[2.394965E3,2.0702476E3,2.909525E3,1.8342909E3,2.145405E3,2.6641719E3,3.214302E3,4.5317073E0,4.4653275E1,2.8670028E-1,2.6350024E-1,2.4866099E3,4.61879E1,4.1215332E1,1.4375663E1,1.77548E3,1.8238029E3,1.9217444E3,1.9508926E3,2.0012759E3,1.5474535E1,2.1602654E1,2.275365E3,3.9178703E1,-1.5687671E0,3.682614E0,7.759155E0,5.7860274E0,1.1564036E1,-6.1928496E0,-4.6371484E0,-4.159807E0,-3.1920266E0,-4.0302043E0,-2.799007E0,-2.912253E0,-1.7427227E0,-1.3261583E0,-1.07421875E-1,-2.2506104E-1,7.2062176E-1,1.7599823E0,7.5795525E-1,1.3218297E0,3.1813416E0,1.3965149E0,3.5320263E0,4.2022305E0,5.5433707E0],"split_indices":[0,7,0,2,0,2,1,4,3,6,6,0,3,3,0,1,7,2,7,8,6,4,0,3,6,0,0,0,0,0,0,0,0,0,0,0,0,0,0,0,0,0,0,0,0,0,0,0,0],"split_type":[0,0,0,0,0,0,0,0,0,0,0,0,0,0,0,0,0,0,0,0,0,0,0,0,0,0,0,0,0,0,0,0,0,0,0,0,0,0,0,0,0,0,0,0,0,0,0,0,0],"sum_hessian":[9.64E2,7.22E2,2.42E2,5.94E2,1.28E2,1.54E2,8.8E1,2.45E2,3.49E2,4.2E1,8.6E1,1.01E2,5.3E1,5.6E1,3.2E1,1.58E2,8.7E1,1.36E2,2.13E2,2E1,2.2E1,5E1,3.6E1,2.6E1,7.5E1,7E0,4.6E1,5E0,5.1E1,6E1,9.8E1,4.1E1,4.6E1,6.6E1,7E1,5.4E1,1.59E2,1.6E1,4E0,2E1,2E0,3.8E1,1.2E1,1.3E1,2.3E1,3E0,2.3E1,2.7E1,4.8E1],"tree_param":{"num_deleted":"0","num_feature":"10","num_nodes":"49","size_leaf_vector":"1"}},{"base_weights":[6.192283E-1,-2.3953428E1,7.372792E1,-3.1350838E1,1.0352093E1,5.295903E1,1.1698315E2,-4.2570667E1,-2.3375328E1,-5.389609E0,1.8013483E1,4.5697994E1,7.621468E1,9.615732E1,1.3011859E2,-5.0691757E1,-3.64662E1,-3.175096E1,-1.8923159E1,-9.960455E0,-9.8189646E-1,1.4008204E1,2.3563951E1,3.389582E1,5.081155E1,2.1416872E0,7.7116866E0,3.0679749E1,1.0150419E1,1.3756674E2,8.50408E1,-5.8506694E0,-4.361971E0,-5.2847075E0,-3.4576676E0,-3.788941E0,-2.6499655E0,-2.2400796E0,-1.2330854E0,-1.201342E0,-9.882813E-2,-2.0362316E-1,6.725749E-1,1.6093487E0,8.6456376E-1,1.1990932E0,2.9857512E0,1.9959635E0,3.6587875E0,4.1507154E0,5.958343E0,6.93042E-1,3.6286054E0,3.9617066E0,1.3918709E1,1.9072632E0,9.090274E0],"categories":[],"categories_nodes":[],"categories_segments":[],"categories_sizes":[],"default_left":[0,0,0,0,0,0,0,0,0,0,0,0,0,0,0,0,0,0,0,0,0,0,0,0,0,0,0,0,0,0,0,0,0,0,0,0,0,0,0,0,0,0,0,0,0,0,0,0,0,0,0,0,0,0,0,0,0],"id":22,"left_children":[1,3,5,7,9,11,13,15,17,19,21,23,25,27,29,31,33,35,37,39,41,43,45,47,49,-1,-1,51,-1,53,55,-1,-1,-1,-1,-1,-1,-1,-1,-1,-1,-1,-1,-1,-1,-1,-1,-1,-1,-1,-1,-1,-1,-1,-1,-1,-1],"loss_changes":[1.7353642E6,1.8380166E5,2.1210688E5,5.2247812E4,1.5654916E4,2.4547969E4,8.8255E3,1.0346875E4,1.2450578E4,8.565397E2,1.6040234E3,6.063E3,2.2703125E2,8.7893125E3,3.4098125E3,3.1405312E3,2.6298281E3,2.864125E3,5.0196016E3,3.7493823E2,2.0060333E2,4.535332E2,2.1912227E3,8.454336E2,4.7091562E3,0E0,0E0,2.811062E2,0E0,3.581875E2,1.7465625E3,0E0,0E0,0E0,0E0,0E0,0E0,0E0,0E0,0E0,0E0,0E0,0E0,0E0,0E0,0E0,0E0,0E0,0E0,0E0,0E0,0E0,0E0,0E0,0E0,0E0,0E0],"parents":[2147483647,0,0,1,1,2,2,3,3,4,4,5,5,6,6,7,7,8,8,9,9,10,10,11,11,12,12,13,13,14,14,15,15,16,16,17,17,18,18,19,19,20,20,21,21,22,22,23,23,24,24,27,27,29,29,30,30],"right_children":[2,4,6,8,10,12,14,16,18,20,22,24,26,28,30,32,34,36,38,40,42,44,46,48,50,-1,-1,52,-1,54,56,-1,-1,-1,-1,-1,-1,-1,-1,-1,-1,-1,-1,-1,-1,-1,-1,-1,-1,-1,-1,-1,-1,-1,-1,-1,-1],"split_conditions":[2.394965E3,2.0702476E3,2.958255E3,1.8342909E3,2.145405E3,2.72615E3,5.190575E1,4.768349E1,4.3076923E1,2.8670028E-1,5.9765896E1,2.559825E3,2.6179607E3,2.9229817E3,7.3069305E1,-1.1085733E1,1.7386921E3,-5.8447323E0,1.9543951E3,2.0012759E3,1.5474535E1,2.3528227E1,2.275365E3,1.51782465E1,1.1064554E0,2.1416872E0,7.7116866E0,3.030315E3,1.0150419E1,2.8312625E3,5.387026E1,-5.8506694E0,-4.361971E0,-5.2847075E0,-3.4576676E0,-3.788941E0,-2.6499655E0,-2.2400796E0,-1.2330854E0,-1.201342E0,-9.882813E-2,-2.0362316E-1,6.725749E-1,1.6093487E0,8.6456376E-1,1.1990932E0,2.9857512E0,1.9959635E0,3.6587875E0,4.1507154E0,5.958343E0,6.93042E-1,3.6286054E0,3.9617066E0,1.3918709E1,1.9072632E0,9.090274E0],"split_indices":[0,7,0,2,0,0,3,3,3,6,3,0,8,8,5,5,7,6,2,8,6,5,0,5,6,0,0,0,0,8,3,0,0,0,0,0,0,0,0,0,0,0,0,0,0,0,0,0,0,0,0,0,0,0,0,0,0],"split_type":[0,0,0,0,0,0,0,0,0,0,0,0,0,0,0,0,0,0,0,0,0,0,0,0,0,0,0,0,0,0,0,0,0,0,0,0,0,0,0,0,0,0,0,0,0,0,0,0,0,0,0,0,0,0,0,0,0],"sum_hessian":[9.64E2,7.22E2,2.42E2,5.94E2,1.28E2,1.65E2,7.7E1,2.45E2,3.49E2,4.2E1,8.6E1,1.28E2,3.7E1,3.3E1,4.4E1,1.02E2,1.43E2,1.19E2,2.3E2,2E1,2.2E1,5.2E1,3.4E1,4.1E1,8.7E1,1E0,3.6E1,3E0,3E1,3.6E1,8E0,4.5E1,5.7E1,1.2E1,1.31E2,5.2E1,6.7E1,1.49E2,8.1E1,1.6E1,4E0,2E1,2E0,3.6E1,1.6E1,1.3E1,2.1E1,8E0,3.3E1,4.5E1,4.2E1,1E0,2E0,1E0,3.5E1,1E0,7E0],"tree_param":{"num_deleted":"0","num_feature":"10","num_nodes":"57","size_leaf_vector":"1"}},{"base_weights":[6.0491264E-1,-2.1589952E1,6.663899E1,-2.8397865E1,8.824084E0,4.781752E1,1.0584061E2,-3.74262E1,-2.0422491E1,-5.1810875E0,1.628867E1,3.824041E1,6.2110565E1,8.6967255E1,1.1774846E2,-4.617034E1,-3.273016E1,-3.0983274E1,-1.6589296E1,-9.824511E0,-7.018945E-1,1.2475883E1,2.1103899E1,2.497815E1,4.0975407E1,3.6268997E1,6.6149597E0,1.8472738E0,9.067089E0,1.2429333E2,7.775863E1,-5.965741E0,-4.2417903E0,-3.7683103E0,-2.7421455E0,-3.8256269E0,-2.614467E0,-2.0591195E0,-1.2480726E0,-1.0361364E0,-2.7917072E-1,4.1825128E-1,-2.4644712E-1,1.4341741E0,5.918626E-1,1.1318802E0,2.7261064E0,1.1420898E0,2.6698787E0,3.5019975E0,4.5700927E0,1.4043783E0,3.9647515E0,1.0263654E1,1.4373446E1,1.8119019E0,8.29487E0],"categories":[],"categories_nodes":[],"categories_segments":[],"categories_sizes":[],"default_left":[0,0,0,0,0,0,0,0,0,0,0,0,0,0,0,0,0,0,0,0,0,0,0,0,0,0,0,0,0,0,0,0,0,0,0,0,0,0,0,0,0,0,0,0,0,0,0,0,0,0,0,0,0,0,0,0,0],"id":23,"left_children":[1,3,5,7,9,11,13,15,17,19,21,23,25,27,29,31,33,35,37,39,41,43,45,47,49,51,-1,-1,-1,53,55,-1,-1,-1,-1,-1,-1,-1,-1,-1,-1,-1,-1,-1,-1,-1,-1,-1,-1,-1,-1,-1,-1,-1,-1,-1,-1],"loss_changes":[1.4157596E6,1.4995216E5,1.7423212E5,4.179028E4,1.3988586E4,2.0347969E4,7.2895E3,9.822156E3,1.2278172E4,9.706472E2,1.3339805E3,2.6762656E3,4.3851875E3,6.9501094E3,2.1129375E3,2.2267344E3,3.7784219E3,1.9206641E3,3.5904531E3,5.7912354E1,2.2553622E2,5.3909717E2,1.9206309E3,1.6161914E2,7.3540625E2,2.6916992E2,0E0,0E0,0E0,8.2575E2,1.2828555E3,0E0,0E0,0E0,0E0,0E0,0E0,0E0,0E0,0E0,0E0,0E0,0E0,0E0,0E0,0E0,0E0,0E0,0E0,0E0,0E0,0E0,0E0,0E0,0E0,0E0,0E0],"parents":[2147483647,0,0,1,1,2,2,3,3,4,4,5,5,6,6,7,7,8,8,9,9,10,10,11,11,12,12,13,13,14,14,15,15,16,16,17,17,18,18,19,19,20,20,21,21,22,22,23,23,24,24,25,25,29,29,30,30],"right_children":[2,4,6,8,10,12,14,16,18,20,22,24,26,28,30,32,34,36,38,40,42,44,46,48,50,52,-1,-1,-1,54,56,-1,-1,-1,-1,-1,-1,-1,-1,-1,-1,-1,-1,-1,-1,-1,-1,-1,-1,-1,-1,-1,-1,-1,-1,-1,-1],"split_conditions":[2.394965E3,2.026855E3,2.958255E3,1.8961208E3,2.145405E3,2.6641719E3,5.190575E1,4.292317E1,-5.4211993E0,6.1378075E1,2.6350024E-1,2.453725E3,4.74918E1,2.9130027E3,7.3069305E1,1.702035E3,1.8238029E3,-1.6997471E0,6.6161532E0,2.042105E3,2.031005E3,2.1602654E1,2.3918403E3,3.9178703E1,8.6648166E-1,2.70878E3,6.6149597E0,1.8472738E0,9.067089E0,3.4129426E3,5.387026E1,-5.965741E0,-4.2417903E0,-3.7683103E0,-2.7421455E0,-3.8256269E0,-2.614467E0,-2.0591195E0,-1.2480726E0,-1.0361364E0,-2.7917072E-1,4.1825128E-1,-2.4644712E-1,1.4341741E0,5.918626E-1,1.1318802E0,2.7261064E0,1.1420898E0,2.6698787E0,3.5019975E0,4.5700927E0,1.4043783E0,3.9647515E0,1.0263654E1,1.4373446E1,1.8119019E0,8.29487E0],"split_indices":[0,0,0,7,0,2,3,3,6,3,6,0,3,8,5,0,7,5,4,0,0,4,7,3,6,0,0,0,0,7,3,0,0,0,0,0,0,0,0,0,0,0,0,0,0,0,0,0,0,0,0,0,0,0,0,0,0],"split_type":[0,0,0,0,0,0,0,0,0,0,0,0,0,0,0,0,0,0,0,0,0,0,0,0,0,0,0,0,0,0,0,0,0,0,0,0,0,0,0,0,0,0,0,0,0,0,0,0,0,0,0,0,0,0,0,0,0],"sum_hessian":[9.64E2,7.22E2,2.42E2,5.9E2,1.32E2,1.65E2,7.7E1,2.75E2,3.15E2,4.6E1,8.6E1,1.01E2,6.4E1,3.3E1,4.4E1,9.3E1,1.82E2,8.2E1,2.33E2,2.2E1,2.4E1,5E1,3.6E1,1.9E1,8.2E1,1E1,5.4E1,2E0,3.1E1,3.6E1,8E0,1.7E1,7.6E1,9.1E1,9.1E1,3E1,5.2E1,1.16E2,1.17E2,2E1,2E0,6E0,1.8E1,3.8E1,1.2E1,1.5E1,2.1E1,3E0,1.6E1,4E1,4.2E1,2E0,8E0,2E1,1.6E1,1E0,7E0],"tree_param":{"num_deleted":"0","num_feature":"10","num_nodes":"57","size_leaf_vector":"1"}},{"base_weights":[5.939585E-1,-1.9460997E1,6.0261196E1,-2.5602856E1,7.9773464E0,4.3179554E1,9.5841866E1,-3.3860477E1,-1.8503868E1,-4.6873493E0,1.47275E1,3.7117935E1,6.2620842E1,6.889936E1,1.0222094E1,-4.203207E1,-2.9588638E1,-2.804867E1,-1.4932137E1,-8.899255E0,-6.2490237E-1,1.0861254E1,1.8611305E1,2.737732E1,4.134507E1,1.7038574E0,6.3392296E1,4.0401125E0,7.675244E1,-5.402314E0,-3.8547323E0,-4.7543483E0,-2.804157E0,-3.3948655E0,-2.312171E0,-1.9572042E0,-1.1969646E0,-9.37457E-1,-2.6056316E-1,-1.5895997E-1,6.9794106E-1,1.2606888E0,3.316284E-1,7.609882E-1,2.2758212E0,1.9141601E0,3.081155E0,2.8454807E0,4.5734315E0,1.7682129E0,6.417085E0,8.027965E0,1.7213013E0],"categories":[],"categories_nodes":[],"categories_segments":[],"categories_sizes":[],"default_left":[0,0,0,0,0,0,0,0,0,0,0,0,0,0,0,0,0,0,0,0,0,0,0,0,0,0,0,0,0,0,0,0,0,0,0,0,0,0,0,0,0,0,0,0,0,0,0,0,0,0,0,0,0],"id":24,"left_children":[1,3,5,7,9,11,13,15,17,19,21,23,25,27,-1,29,31,33,35,37,39,41,43,45,47,-1,49,-1,51,-1,-1,-1,-1,-1,-1,-1,-1,-1,-1,-1,-1,-1,-1,-1,-1,-1,-1,-1,-1,-1,-1,-1,-1],"loss_changes":[1.1559148E6,1.2204597E5,1.4355125E5,3.4018312E4,1.1439021E4,1.7238031E4,6.36275E3,8.251219E3,1.0490453E4,7.9863916E2,1.1042285E3,4.1796406E3,2.56125E2,9.274922E2,0E0,1.7200625E3,3.7222969E3,1.7149844E3,2.995961E3,4.4376587E1,1.9449097E2,5.640464E2,1.7429307E3,5.981172E2,3.6775469E3,0E0,1.8207812E2,0E0,1.34825E3,0E0,0E0,0E0,0E0,0E0,0E0,0E0,0E0,0E0,0E0,0E0,0E0,0E0,0E0,0E0,0E0,0E0,0E0,0E0,0E0,0E0,0E0,0E0,0E0],"parents":[2147483647,0,0,1,1,2,2,3,3,4,4,5,5,6,6,7,7,8,8,9,9,10,10,11,11,12,12,13,13,15,15,16,16,17,17,18,18,19,19,20,20,21,21,22,22,23,23,24,24,26,26,28,28],"right_children":[2,4,6,8,10,12,14,16,18,20,22,24,26,28,-1,30,32,34,36,38,40,42,44,46,48,-1,50,-1,52,-1,-1,-1,-1,-1,-1,-1,-1,-1,-1,-1,-1,-1,-1,-1,-1,-1,-1,-1,-1,-1,-1,-1,-1],"split_conditions":[2.394965E3,2.026855E3,2.958255E3,1.8952648E3,2.145405E3,2.72615E3,-1.0497524E1,4.292317E1,-5.4211993E0,6.1378075E1,-7.057364E-1,2.559825E3,2.6179607E3,4.1215332E1,1.0222094E1,1.702035E3,1.7288314E3,1.917895E3,2.0644467E-1,2.042105E3,2.0012759E3,-2.4962866E0,2.3669478E3,1.9816957E1,4.652836E1,1.7038574E0,-1.2909755E1,4.0401125E0,6.2466785E1,-5.402314E0,-3.8547323E0,-4.7543483E0,-2.804157E0,-3.3948655E0,-2.312171E0,-1.9572042E0,-1.1969646E0,-9.37457E-1,-2.6056316E-1,-1.5895997E-1,6.9794106E-1,1.2606888E0,3.316284E-1,7.609882E-1,2.2758212E0,1.9141601E0,3.081155E0,2.8454807E0,4.5734315E0,1.7682129E0,6.417085E0,8.027965E0,1.7213013E0],"split_indices":[0,0,0,7,0,0,6,3,6,3,6,0,8,3,0,0,7,0,4,0,8,6,7,4,3,0,6,0,4,0,0,0,0,0,0,0,0,0,0,0,0,0,0,0,0,0,0,0,0,0,0,0,0],"split_type":[0,0,0,0,0,0,0,0,0,0,0,0,0,0,0,0,0,0,0,0,0,0,0,0,0,0,0,0,0,0,0,0,0,0,0,0,0,0,0,0,0,0,0,0,0,0,0,0,0,0,0,0,0],"sum_hessian":[9.64E2,7.22E2,2.42E2,5.9E2,1.32E2,1.65E2,7.7E1,2.71E2,3.19E2,4.6E1,8.6E1,1.28E2,3.7E1,1.7E1,6E1,9E1,1.81E2,8.5E1,2.34E2,2.2E1,2.4E1,4.5E1,4.1E1,4.1E1,8.7E1,1E0,3.6E1,5E0,1.2E1,1.7E1,7.3E1,1.2E1,1.69E2,3.6E1,4.9E1,8.9E1,1.45E2,2E1,2E0,2.2E1,2E0,3.6E1,9E0,1.2E1,2.9E1,1.4E1,2.7E1,2.4E1,6.3E1,1E0,3.5E1,1.1E1,1E0],"tree_param":{"num_deleted":"0","num_feature":"10","num_nodes":"53","size_leaf_vector":"1"}},{"base_weights":[5.6007165E-1,-1.7544909E1,5.442567E1,-2.3653297E1,4.991981E0,3.571439E1,8.082565E1,-3.3043945E1,-1.878314E1,-5.565688E0,1.3307926E1,3.1282358E1,5.024893E1,6.3801483E1,8.981126E1,-3.668594E1,-2.494641E1,-2.2999453E1,-1.2857635E1,-1.0438875E1,-1.7716553E0,1.2356606E1,2.995868E0,2.1495062E1,3.456096E1,3.0182106E1,5.7998304E0,4.670724E1,7.182699E1,7.082242E1,1.0124065E2,-4.630356E0,-3.337077E0,-3.2116032E0,-2.136487E0,-2.7881858E0,-1.8086067E0,-1.5009077E0,-4.8065534E-1,-1.402063E0,-8.236189E-1,-4.3990818E-1,3.6162004E-2,6.2661004E-1,1.3922712E0,2.2493265E0,4.6807456E-1,2.3161995E0,3.6937397E0,3.1659205E0,7.705566E-1,5.8444014E0,2.494465E0,1.8795289E0,7.331553E0,7.468883E0,3.887246E0,1.0955293E1,6.320766E0],"categories":[],"categories_nodes":[],"categories_segments":[],"categories_sizes":[],"default_left":[0,0,0,0,0,0,0,0,0,0,0,0,0,0,0,0,0,0,0,0,0,0,0,0,0,0,0,0,0,0,0,0,0,0,0,0,0,0,0,0,0,0,0,0,0,0,0,0,0,0,0,0,0,0,0,0,0,0,0],"id":25,"left_children":[1,3,5,7,9,11,13,15,17,19,21,23,25,27,29,31,33,35,37,39,41,43,-1,45,47,49,-1,51,53,55,57,-1,-1,-1,-1,-1,-1,-1,-1,-1,-1,-1,-1,-1,-1,-1,-1,-1,-1,-1,-1,-1,-1,-1,-1,-1,-1,-1,-1],"loss_changes":[9.4205725E5,9.96492E4,1.17149875E5,2.5401938E4,1.3682602E4,7.7042188E3,9.567125E3,4.776625E3,9.123172E3,1.2572495E3,1.00791016E3,2.8831328E3,3.2256562E3,1.858375E3,6.5028125E3,2.631625E3,9.315781E2,4.7493438E3,2.6819668E3,1.2120776E2,2.2579175E2,7.139824E2,0E0,4.1502246E2,1.3928359E3,1.2124902E2,0E0,2.3734746E3,5.165703E2,4.3201562E2,4.7726562E3,0E0,0E0,0E0,0E0,0E0,0E0,0E0,0E0,0E0,0E0,0E0,0E0,0E0,0E0,0E0,0E0,0E0,0E0,0E0,0E0,0E0,0E0,0E0,0E0,0E0,0E0,0E0,0E0],"parents":[2147483647,0,0,1,1,2,2,3,3,4,4,5,5,6,6,7,7,8,8,9,9,10,10,11,11,12,12,13,13,14,14,15,15,16,16,17,17,18,18,19,19,20,20,21,21,23,23,24,24,25,25,27,27,28,28,29,29,30,30],"right_children":[2,4,6,8,10,12,14,16,18,20,22,24,26,28,30,32,34,36,38,40,42,44,-1,46,48,50,-1,52,54,56,58,-1,-1,-1,-1,-1,-1,-1,-1,-1,-1,-1,-1,-1,-1,-1,-1,-1,-1,-1,-1,-1,-1,-1,-1,-1,-1,-1,-1],"split_conditions":[2.394965E3,2.01253E3,2.96279E3,1.8034672E3,2.145405E3,7.1837326E1,3.092845E3,6.0250317E1,5.468496E1,2.499138E0,1.1887466E1,2.459225E3,2.7011604E3,5.880368E1,5.07514E1,1.702035E3,1.7307375E3,1.8724517E3,1.9013411E3,2.0546726E3,5.043725E-1,4.3998627E1,2.995868E0,2.4562986E3,-8.172356E0,4.0161354E1,5.7998304E0,3.2667904E1,3.1331598E1,3.436963E3,7.3069305E1,-4.630356E0,-3.337077E0,-3.2116032E0,-2.136487E0,-2.7881858E0,-1.8086067E0,-1.5009077E0,-4.8065534E-1,-1.402063E0,-8.236189E-1,-4.3990818E-1,3.6162004E-2,6.2661004E-1,1.3922712E0,2.2493265E0,4.6807456E-1,2.3161995E0,3.6937397E0,3.1659205E0,7.705566E-1,5.8444014E0,2.494465E0,1.8795289E0,7.331553E0,7.468883E0,3.887246E0,1.0955293E1,6.320766E0],"split_indices":[0,0,7,2,0,3,0,3,3,4,6,8,7,3,3,0,2,8,8,7,6,3,0,8,4,5,0,4,5,7,5,0,0,0,0,0,0,0,0,0,0,0,0,0,0,0,0,0,0,0,0,0,0,0,0,0,0,0,0],"split_type":[0,0,0,0,0,0,0,0,0,0,0,0,0,0,0,0,0,0,0,0,0,0,0,0,0,0,0,0,0,0,0,0,0,0,0,0,0,0,0,0,0,0,0,0,0,0,0,0,0,0,0,0,0,0,0,0,0,0,0],"sum_hessian":[9.64E2,7.22E2,2.42E2,5.68E2,1.54E2,1.43E2,9.9E1,1.92E2,3.76E2,6.8E1,8.6E1,1.12E2,3.1E1,3.7E1,6.2E1,1.3E2,6.2E1,2.18E2,1.58E2,2.9E1,3.9E1,8.3E1,3E0,3E1,8.2E1,1E1,2.1E1,1.4E1,2.3E1,2.6E1,3.6E1,3E1,1E2,1.8E1,4.4E1,1.07E2,1.11E2,1.24E2,3.4E1,9E0,2E1,1.7E1,2.2E1,1.8E1,6.5E1,2.8E1,2E0,1.6E1,6.6E1,9E0,1E0,8E0,6E0,1E0,2.2E1,2.2E1,4E0,2.8E1,8E0],"tree_param":{"num_deleted":"0","num_feature":"10","num_nodes":"59","size_leaf_vector":"1"}},{"base_weights":[5.528888E-1,-1.5320742E1,5.077139E1,-2.0077593E1,1.0998573E1,3.5002026E1,7.57154E1,-2.7590246E1,-1.4198622E1,3.286201E0,1.4138849E1,2.9125254E1,4.728369E1,6.408045E1,8.8988914E1,-3.6910553E1,-2.460417E1,-2.528957E1,-1.1871035E1,2.4442291E-1,5.6747403E0,6.7717605E0,1.6816507E1,2.030988E1,3.0812654E1,2.7559427E1,5.28545E0,4.5455666E1,7.1295906E1,7.425257E1,1.0553162E1,-4.2927513E0,-3.1952825E0,-4.1003275E0,-2.2554252E0,-3.5645173E0,-2.1045587E0,-1.515173E0,-8.3939886E-1,-1.118539E-1,6.5234375E-1,6.420396E-1,-4.422201E-2,7.538286E-1,-5.0458986E-1,1.8082106E0,5.012556E-1,2.1928325E0,4.368734E-1,2.3209164E0,3.3740342E0,2.8733864E0,7.320313E-1,5.10551E0,2.1806006E0,3.853413E0,7.42802E0,5.2843833E0,8.830276E0],"categories":[],"categories_nodes":[],"categories_segments":[],"categories_sizes":[],"default_left":[0,0,0,0,0,0,0,0,0,0,0,0,0,0,0,0,0,0,0,0,0,0,0,0,0,0,0,0,0,0,0,0,0,0,0,0,0,0,0,0,0,0,0,0,0,0,0,0,0,0,0,0,0,0,0,0,0,0,0],"id":26,"left_children":[1,3,5,7,9,11,13,15,17,19,21,23,25,27,29,31,33,35,37,39,41,43,45,47,49,51,-1,53,55,57,-1,-1,-1,-1,-1,-1,-1,-1,-1,-1,-1,-1,-1,-1,-1,-1,-1,-1,-1,-1,-1,-1,-1,-1,-1,-1,-1,-1,-1],"loss_changes":[7.700275E5,9.2115484E4,8.860731E4,2.7079906E4,2.6902822E3,9.016266E3,8.0424062E3,6.661922E3,8.760898E3,2.4563678E2,1.4642461E3,8.6171094E2,3.4879688E3,3.6129062E3,1.671375E3,5.374922E2,6.101117E3,1.8867656E3,3.2036953E3,1.4422563E2,8.950098E1,2.4638367E2,7.758301E2,3.9439844E2,1.0422891E3,7.4893555E1,0E0,1.1379102E3,5.596406E2,2.5528594E3,0E0,0E0,0E0,0E0,0E0,0E0,0E0,0E0,0E0,0E0,0E0,0E0,0E0,0E0,0E0,0E0,0E0,0E0,0E0,0E0,0E0,0E0,0E0,0E0,0E0,0E0,0E0,0E0,0E0],"parents":[2147483647,0,0,1,1,2,2,3,3,4,4,5,5,6,6,7,7,8,8,9,9,10,10,11,11,12,12,13,13,14,14,15,15,16,16,17,17,18,18,19,19,20,20,21,21,22,22,23,23,24,24,25,25,27,27,28,28,29,29],"right_children":[2,4,6,8,10,12,14,16,18,20,22,24,26,28,30,32,34,36,38,40,42,44,46,48,50,52,-1,54,56,58,-1,-1,-1,-1,-1,-1,-1,-1,-1,-1,-1,-1,-1,-1,-1,-1,-1,-1,-1,-1,-1,-1,-1,-1,-1,-1,-1,-1,-1],"split_conditions":[2.41369E3,2.042105E3,2.8312625E3,1.8952648E3,2.3695854E3,7.017225E1,5.6916855E1,-2.5931523E0,-6.680745E0,2.2361492E3,4.768349E1,2.459225E3,2.7011604E3,3.27893E3,3.24098E3,-4.9665675E0,1.7288314E3,-1.296368E1,2.0042836E3,1.5474535E1,2.32747E3,2.4702239E3,2.472936E3,2.4562986E3,4.652836E1,4.0161354E1,5.28545E0,3.2667904E1,-1.9882227E1,6.805157E1,1.0553162E1,-4.2927513E0,-3.1952825E0,-4.1003275E0,-2.2554252E0,-3.5645173E0,-2.1045587E0,-1.515173E0,-8.3939886E-1,-1.118539E-1,6.5234375E-1,6.420396E-1,-4.422201E-2,7.538286E-1,-5.0458986E-1,1.8082106E0,5.012556E-1,2.1928325E0,4.368734E-1,2.3209164E0,3.3740342E0,2.8733864E0,7.320313E-1,5.10551E0,2.1806006E0,3.853413E0,7.42802E0,5.2843833E0,8.830276E0],"split_indices":[0,0,8,7,7,3,3,6,6,7,3,8,7,0,0,6,7,4,7,6,0,7,7,8,3,5,0,4,6,3,0,0,0,0,0,0,0,0,0,0,0,0,0,0,0,0,0,0,0,0,0,0,0,0,0,0,0,0,0],"split_type":[0,0,0,0,0,0,0,0,0,0,0,0,0,0,0,0,0,0,0,0,0,0,0,0,0,0,0,0,0,0,0,0,0,0,0,0,0,0,0,0,0,0,0,0,0,0,0,0,0,0,0,0,0,0,0,0,0,0,0],"sum_hessian":[9.64E2,7.33E2,2.31E2,6.21E2,1.12E2,1.43E2,8.8E1,2.71E2,3.5E2,3.3E1,7.9E1,9.9E1,4.4E1,5E1,3.8E1,6.3E1,2.08E2,5.9E1,2.91E2,1.5E1,1.8E1,2.2E1,5.7E1,1.8E1,8.1E1,1.1E1,3.3E1,1.6E1,3.4E1,2.3E1,1.5E1,2.5E1,3.8E1,2.1E1,1.87E2,1.5E1,4.4E1,1.48E2,1.43E2,1.3E1,2E0,1.6E1,2E0,2.1E1,1E0,5.1E1,6E0,1.6E1,2E0,2.5E1,5.6E1,1E1,1E0,1.2E1,4E0,4E0,3E1,1.1E1,1.2E1],"tree_param":{"num_deleted":"0","num_feature":"10","num_nodes":"59","size_leaf_vector":"1"}},{"base_weights":[5.414035E-1,-1.4264901E1,4.4592503E1,-1.9244816E1,4.108237E0,3.0502838E1,6.862964E1,-2.7602224E1,-1.5400777E1,-3.7662947E0,1.1537689E1,2.5261774E1,4.2752956E1,5.8036495E1,8.072248E1,-3.2359898E1,-2.2480955E1,-1.9059E1,-9.920117E0,-8.657792E0,-5.639285E-1,9.378497E0,1.9588303E1,1.7479485E1,2.7800882E1,2.5905704E0,4.809421E0,4.133871E1,6.448866E1,3.695746E0,8.334297E1,-3.9881794E0,-2.9182506E0,-5.391284E-1,-2.3221748E0,-3.2024791E0,-1.7697595E0,-1.12242E0,-2.9553834E-2,-5.7237065E-1,-1.0867386E0,-3.186957E-1,1.3298035E-1,1.2259612E0,3.584303E-1,3.194092E-1,2.4786866E0,1.8291138E0,4.0775552E-1,2.0191438E0,3.042505E0,4.6342363E0,2.0061474E0,3.5451317E0,6.7091827E0,8.819931E0,5.5320864E0],"categories":[],"categories_nodes":[],"categories_segments":[],"categories_sizes":[],"default_left":[0,0,0,0,0,0,0,0,0,0,0,0,0,0,0,0,0,0,0,0,0,0,0,0,0,0,0,0,0,0,0,0,0,0,0,0,0,0,0,0,0,0,0,0,0,0,0,0,0,0,0,0,0,0,0,0,0],"id":27,"left_children":[1,3,5,7,9,11,13,15,17,19,21,23,25,27,29,31,33,35,37,39,41,43,45,47,49,-1,-1,51,53,-1,55,-1,-1,-1,-1,-1,-1,-1,-1,-1,-1,-1,-1,-1,-1,-1,-1,-1,-1,-1,-1,-1,-1,-1,-1,-1,-1],"loss_changes":[6.300419E5,6.623116E4,8.020466E4,1.7854703E4,9.111491E3,8.871547E3,6.7161875E3,3.6095625E3,7.670328E3,1.1856095E3,1.206917E3,1.7074219E3,2.8034297E3,2.8287031E3,1.3926094E3,9.8714844E2,1.00153516E3,3.5637422E3,1.9923291E3,1.3229248E2,2.3770172E2,1.0411514E3,1.2844497E3,2.5174902E2,1.02308984E3,0E0,0E0,8.801914E2,2.6710938E2,0E0,1.9796875E1,0E0,0E0,0E0,0E0,0E0,0E0,0E0,0E0,0E0,0E0,0E0,0E0,0E0,0E0,0E0,0E0,0E0,0E0,0E0,0E0,0E0,0E0,0E0,0E0,0E0,0E0],"parents":[2147483647,0,0,1,1,2,2,3,3,4,4,5,5,6,6,7,7,8,8,9,9,10,10,11,11,12,12,13,13,14,14,15,15,16,16,17,17,18,18,19,19,20,20,21,21,22,22,23,23,24,24,27,27,28,28,30,30],"right_children":[2,4,6,8,10,12,14,16,18,20,22,24,26,28,30,32,34,36,38,40,42,44,46,48,50,-1,-1,52,54,-1,56,-1,-1,-1,-1,-1,-1,-1,-1,-1,-1,-1,-1,-1,-1,-1,-1,-1,-1,-1,-1,-1,-1,-1,-1,-1,-1],"split_conditions":[2.394965E3,2.01253E3,2.8312625E3,1.798095E3,2.093632E3,7.017225E1,5.6916855E1,5.3287605E1,5.468496E1,2.499138E0,7.017225E1,2.459225E3,2.589425E3,3.27893E3,2.94383E3,1.702035E3,-1.0002767E1,-1.9657225E1,3.3443123E1,2.027416E3,5.043725E-1,2.4291091E3,2.233005E3,2.4562986E3,-4.817429E0,2.5905704E0,4.809421E0,3.2667904E1,-1.9882227E1,3.695746E0,7.3069305E1,-3.9881794E0,-2.9182506E0,-5.391284E-1,-2.3221748E0,-3.2024791E0,-1.7697595E0,-1.12242E0,-2.9553834E-2,-5.7237065E-1,-1.0867386E0,-3.186957E-1,1.3298035E-1,1.2259612E0,3.584303E-1,3.194092E-1,2.4786866E0,1.8291138E0,4.0775552E-1,2.0191438E0,3.042505E0,4.6342363E0,2.0061474E0,3.5451317E0,6.7091827E0,8.819931E0,5.5320864E0],"split_indices":[0,0,8,0,8,3,3,3,3,4,3,8,0,0,0,0,4,4,4,1,6,7,0,8,6,0,0,4,6,0,5,0,0,0,0,0,0,0,0,0,0,0,0,0,0,0,0,0,0,0,0,0,0,0,0,0,0],"split_type":[0,0,0,0,0,0,0,0,0,0,0,0,0,0,0,0,0,0,0,0,0,0,0,0,0,0,0,0,0,0,0,0,0,0,0,0,0,0,0,0,0,0,0,0,0,0,0,0,0,0,0,0,0,0,0,0,0],"sum_hessian":[9.64E2,7.22E2,2.42E2,5.68E2,1.54E2,1.54E2,8.8E1,1.77E2,3.91E2,7.5E1,7.9E1,1.1E2,4.4E1,5E1,3.8E1,8.9E1,8.8E1,2.33E2,1.58E2,2.9E1,4.6E1,6.4E1,1.5E1,2.9E1,8.1E1,1.2E1,3.2E1,1.6E1,3.4E1,3E0,3.5E1,2.3E1,6.6E1,4E0,8.4E1,2E1,2.13E2,1.39E2,1.9E1,1.4E1,1.5E1,1.9E1,2.7E1,4.2E1,2.2E1,4E0,1.1E1,2.7E1,2E0,2.3E1,5.8E1,1.2E1,4E0,4E0,3E1,2.8E1,7E0],"tree_param":{"num_deleted":"0","num_feature":"10","num_nodes":"57","size_leaf_vector":"1"}},{"base_weights":[5.2486986E-1,-1.3969123E1,3.731539E1,-1.9087626E1,-2.803561E0,2.3925596E1,6.0240482E1,-2.5868362E1,-1.5969831E1,-6.8988037E0,7.916884E0,1.658731E1,2.9853355E1,4.740258E1,6.702778E1,-2.7828903E1,-1.4579371E1,-2.3402737E1,-1.2973095E1,-9.841202E0,-9.257912E-2,6.884157E0,1.8106593E0,1.0414865E1,2.2809244E1,2.5661438E1,4.34029E1,4.041416E1,6.2928734E0,5.1913918E1,7.624525E1,-2.9582767E0,-1.2995037E0,2.928589E-1,-1.5467917E0,-3.2403276E0,-2.0810564E0,-1.491838E0,-4.6139103E-1,-1.7612813E0,-8.721281E-1,6.4136004E-1,-2.6201886E-1,3.0509982E-1,1.0000646E0,1.2656206E0,1.9769531E-1,1.0848694E0,2.5086594E0,1.8784533E0,2.935865E0,4.4519167E0,1.0538819E0,5.1811633E0,3.3605049E0,5.4607983E0,2.913843E0,8.2587385E0,4.7337813E0],"categories":[],"categories_nodes":[],"categories_segments":[],"categories_sizes":[],"default_left":[0,0,0,0,0,0,0,0,0,0,0,0,0,0,0,0,0,0,0,0,0,0,0,0,0,0,0,0,0,0,0,0,0,0,0,0,0,0,0,0,0,0,0,0,0,0,0,0,0,0,0,0,0,0,0,0,0,0,0],"id":28,"left_children":[1,3,5,7,9,11,13,15,17,19,21,23,25,27,29,31,33,35,37,39,41,43,-1,45,47,49,51,53,-1,55,57,-1,-1,-1,-1,-1,-1,-1,-1,-1,-1,-1,-1,-1,-1,-1,-1,-1,-1,-1,-1,-1,-1,-1,-1,-1,-1,-1,-1],"loss_changes":[5.1509938E5,3.955211E4,8.235941E4,9.628828E3,9.669336E3,7.073742E3,5.5361875E3,2.8698828E3,7.002414E3,3.1833208E3,5.172661E2,2.8348066E3,4.282086E3,1.5799141E3,4.8184375E3,2.8676406E3,4.186582E2,1.4954492E3,3.7687617E3,8.1249316E2,8.226137E2,6.5040967E2,0E0,7.6929346E2,7.901387E2,1.3554141E3,3.0120312E2,5.0946484E2,0E0,6.549219E1,2.873875E3,0E0,0E0,0E0,0E0,0E0,0E0,0E0,0E0,0E0,0E0,0E0,0E0,0E0,0E0,0E0,0E0,0E0,0E0,0E0,0E0,0E0,0E0,0E0,0E0,0E0,0E0,0E0,0E0],"parents":[2147483647,0,0,1,1,2,2,3,3,4,4,5,5,6,6,7,7,8,8,9,9,10,10,11,11,12,12,13,13,14,14,15,15,16,16,17,17,18,18,19,19,20,20,21,21,23,23,24,24,25,25,26,26,27,27,29,29,30,30],"right_children":[2,4,6,8,10,12,14,16,18,20,22,24,26,28,30,32,34,36,38,40,42,44,-1,46,48,50,52,54,-1,56,58,-1,-1,-1,-1,-1,-1,-1,-1,-1,-1,-1,-1,-1,-1,-1,-1,-1,-1,-1,-1,-1,-1,-1,-1,-1,-1,-1,-1],"split_conditions":[2.3425115E3,1.95153E3,2.96279E3,1.7847151E3,2.0046575E3,2.6124346E3,3.092845E3,7.1954007E0,-3.6647463E0,5.496912E-1,6.3701607E1,6.218987E1,7.1837326E1,7.55326E1,5.07514E1,2.1136547E1,5.5948734E1,-1.7639713E1,6.1293764E0,-7.0895653E0,2.0004641E3,2.3149026E3,1.8106593E0,2.1849867E1,2.2610533E1,-4.48876E0,5.077206E1,4.0161354E1,6.2928734E0,3.436963E3,7.3069305E1,-2.9582767E0,-1.2995037E0,2.928589E-1,-1.5467917E0,-3.2403276E0,-2.0810564E0,-1.491838E0,-4.6139103E-1,-1.7612813E0,-8.721281E-1,6.4136004E-1,-2.6201886E-1,3.0509982E-1,1.0000646E0,1.2656206E0,1.9769531E-1,1.0848694E0,2.5086594E0,1.8784533E0,2.935865E0,4.4519167E0,1.0538819E0,5.1811633E0,3.3605049E0,5.4607983E0,2.913843E0,8.2587385E0,4.7337813E0],"split_indices":[2,0,7,2,8,2,0,6,6,6,4,3,3,3,3,5,3,4,6,6,2,2,0,4,4,4,5,5,0,7,5,0,0,0,0,0,0,0,0,0,0,0,0,0,0,0,0,0,0,0,0,0,0,0,0,0,0,0,0],"split_type":[0,0,0,0,0,0,0,0,0,0,0,0,0,0,0,0,0,0,0,0,0,0,0,0,0,0,0,0,0,0,0,0,0,0,0,0,0,0,0,0,0,0,0,0,0,0,0,0,0,0,0,0,0,0,0,0,0,0,0],"sum_hessian":[9.64E2,6.92E2,2.72E2,4.74E2,2.18E2,1.73E2,9.9E1,1.47E2,3.27E2,1.58E2,6E1,7.9E1,9.4E1,3.7E1,6.2E1,1.24E2,2.3E1,9.2E1,2.35E2,1.1E2,4.8E1,5.6E1,4E0,4.1E1,3.8E1,7.4E1,2E1,2.8E1,9E0,2.6E1,3.6E1,1.1E2,1.4E1,1E0,2.2E1,1.8E1,7.4E1,1.9E2,4.5E1,1.2E1,9.8E1,1.3E1,3.5E1,2.6E1,3E1,3.2E1,9E0,7E0,3.1E1,2.8E1,4.6E1,1.9E1,1E0,8E0,2E1,2.2E1,4E0,2.8E1,8E0],"tree_param":{"num_deleted":"0","num_feature":"10","num_nodes":"59","size_leaf_vector":"1"}},{"base_weights":[5.134676E-1,-1.1228276E1,3.7659702E1,-1.5480879E1,4.7571297E0,2.46557E1,5.4578426E1,-2.053702E1,-1.1102199E1,-2.3656719E0,9.792569E0,2.1844574E1,3.5925987E1,4.5447796E1,6.3523113E1,-3.3116624E0,-1.8872063E1,-1.5570171E1,-7.714362E0,-1.4634996E1,-3.8690722E-1,4.8713703E0,1.2015849E1,1.808368E1,2.8131216E1,9.9641114E-1,3.659256E0,2.428644E0,4.814004E0,4.676668E1,7.706836E1,-3.3119695E0,-1.7201623E0,-1.8751783E0,-1.1207923E0,-1.2930807E0,-5.435604E-1,-1.6658064E0,-5.0361735E-1,1.6017984E0,-1.2746848E-1,-2.4857178E-1,5.780888E-1,1.4561262E0,5.94242E-1,2.3062112E0,1.469476E0,1.5594276E0,3.3125627E0,4.8040743E0,8.7316895E-1,8.583769E0,4.225614E0],"categories":[],"categories_nodes":[],"categories_segments":[],"categories_sizes":[],"default_left":[0,0,0,0,0,0,0,0,0,0,0,0,0,0,0,0,0,0,0,0,0,0,0,0,0,0,0,0,0,0,0,0,0,0,0,0,0,0,0,0,0,0,0,0,0,0,0,0,0,0,0,0,0],"id":29,"left_children":[1,3,5,7,9,11,13,15,17,19,21,23,25,27,29,-1,31,33,35,37,39,41,43,45,47,-1,-1,-1,-1,49,51,-1,-1,-1,-1,-1,-1,-1,-1,-1,-1,-1,-1,-1,-1,-1,-1,-1,-1,-1,-1,-1,-1],"loss_changes":[4.2131878E5,4.997064E4,4.9696938E4,1.261275E4,5.5824634E3,3.4289453E3,5.2800625E3,4.9881484E3,4.6176953E3,1.5724144E3,9.371162E2,2.068414E3,6.802344E1,1.8503438E3,7.2903125E3,0E0,5.1184453E3,1.6496133E3,2.069377E3,9.0878784E1,8.5056E2,2.1511182E2,8.719531E2,8.589844E2,1.9253984E3,0E0,0E0,0E0,0E0,7.4353125E2,4.0048125E3,0E0,0E0,0E0,0E0,0E0,0E0,0E0,0E0,0E0,0E0,0E0,0E0,0E0,0E0,0E0,0E0,0E0,0E0,0E0,0E0,0E0,0E0],"parents":[2147483647,0,0,1,1,2,2,3,3,4,4,5,5,6,6,7,7,8,8,9,9,10,10,11,11,12,12,13,13,14,14,16,16,17,17,18,18,19,19,20,20,21,21,22,22,23,23,24,24,29,29,30,30],"right_children":[2,4,6,8,10,12,14,16,18,20,22,24,26,28,30,-1,32,34,36,38,40,42,44,46,48,-1,-1,-1,-1,50,52,-1,-1,-1,-1,-1,-1,-1,-1,-1,-1,-1,-1,-1,-1,-1,-1,-1,-1,-1,-1,-1,-1],"split_conditions":[2.41369E3,2.060515E3,2.96279E3,1.8938475E3,2.093632E3,7.8011475E0,3.4129426E3,-4.575591E0,-2.2618926E0,-5.6306796E0,4.9888042E1,2.8569588E1,5.2032948E1,4.6695126E1,-5.4211993E0,-3.3116624E0,1.7288314E3,1.945735E3,1.9628795E3,2.0311268E3,2.0655762E3,-5.759097E0,2.4783268E1,-3.3140426E0,2.564018E3,9.9641114E-1,3.659256E0,2.428644E0,4.814004E0,6.3701607E1,7.3069305E1,-3.3119695E0,-1.7201623E0,-1.8751783E0,-1.1207923E0,-1.2930807E0,-5.435604E-1,-1.6658064E0,-5.0361735E-1,1.6017984E0,-1.2746848E-1,-2.4857178E-1,5.780888E-1,1.4561262E0,5.94242E-1,2.3062112E0,1.469476E0,1.5594276E0,3.3125627E0,4.8040743E0,8.7316895E-1,8.583769E0,4.225614E0],"split_indices":[0,7,7,7,8,6,7,6,6,6,3,5,3,3,6,0,7,0,7,2,7,4,5,5,8,0,0,0,0,4,5,0,0,0,0,0,0,0,0,0,0,0,0,0,0,0,0,0,0,0,0,0,0],"split_type":[0,0,0,0,0,0,0,0,0,0,0,0,0,0,0,0,0,0,0,0,0,0,0,0,0,0,0,0,0,0,0,0,0,0,0,0,0,0,0,0,0,0,0,0,0,0,0,0,0,0,0,0,0],"sum_hessian":[9.64E2,7.33E2,2.31E2,5.79E2,1.54E2,1.32E2,9.9E1,2.67E2,3.12E2,6.4E1,9E1,1.08E2,2.4E1,5.2E1,4.7E1,2.9E1,2.38E2,1.33E2,1.79E2,8E0,5.6E1,2.9E1,6.1E1,7E1,3.8E1,1E0,2.3E1,7E0,4.5E1,2.3E1,2.4E1,2.3E1,2.15E2,7.5E1,5.8E1,5.3E1,1.26E2,6E0,2E0,2E0,5.4E1,3E0,2.6E1,4.2E1,1.9E1,2.6E1,4.4E1,1.2E1,2.6E1,2.2E1,1E0,1.8E1,6E0],"tree_param":{"num_deleted":"0","num_feature":"10","num_nodes":"53","size_leaf_vector":"1"}},{"base_weights":[4.9068624E-1,-1.0121085E1,3.406202E1,-1.3231076E1,7.6413283E0,2.4333979E1,5.2956696E1,-1.7364386E1,-8.042943E0,1.03218775E1,3.224615E0,1.8733002E1,3.0211628E1,4.345401E1,6.2312267E1,-2.5567556E1,-1.5525361E1,-1.7396158E1,-6.2176766E0,6.5277953E0,1.5199168E1,1.4806315E0,1.6182765E0,1.6328506E1,3.139852E0,1.6614243E1,3.3386993E1,-6.878662E-1,4.4849407E1,1.4592896E0,6.323245E0,-3.1775234E0,-1.8334872E0,-2.2096064E0,-1.3334234E0,-2.7120576E0,-1.3452361E0,-7.8583664E-1,-2.925908E-2,1.9270584E-1,8.4307164E-1,1.8584324E0,1.9052038E-1,-5.641907E-1,2.230896E-1,2.0841372E0,1.3257931E0,1.9772424E0,2.1965943E-1,1.9101003E0,3.464388E0,4.673935E0,2.1893947E0],"categories":[],"categories_nodes":[],"categories_segments":[],"categories_sizes":[],"default_left":[0,0,0,0,0,0,0,0,0,0,0,0,0,0,0,0,0,0,0,0,0,0,0,0,0,0,0,0,0,0,0,0,0,0,0,0,0,0,0,0,0,0,0,0,0,0,0,0,0,0,0,0,0],"id":30,"left_children":[1,3,5,7,9,11,13,15,17,19,21,23,25,27,29,31,33,35,37,39,41,43,-1,45,-1,47,49,-1,51,-1,-1,-1,-1,-1,-1,-1,-1,-1,-1,-1,-1,-1,-1,-1,-1,-1,-1,-1,-1,-1,-1,-1,-1],"loss_changes":[3.4412728E5,4.0647953E4,4.1354844E4,1.3262945E4,1.2690303E3,4.5367344E3,4.2267344E3,4.837828E3,4.654959E3,1.1591118E3,9.477876E2,1.9845527E3,2.640375E3,3.258336E3,7.019375E2,2.2010938E3,3.8229844E3,1.3609648E3,2.2821875E3,3.3394702E2,1.2696553E3,2.2099422E2,0E0,7.07541E2,0E0,6.85105E2,3.9766406E2,0E0,7.5546094E2,0E0,0E0,0E0,0E0,0E0,0E0,0E0,0E0,0E0,0E0,0E0,0E0,0E0,0E0,0E0,0E0,0E0,0E0,0E0,0E0,0E0,0E0,0E0,0E0],"parents":[2147483647,0,0,1,1,2,2,3,3,4,4,5,5,6,6,7,7,8,8,9,9,10,10,11,11,12,12,13,13,14,14,15,15,16,16,17,17,18,18,19,19,20,20,21,21,23,23,25,25,26,26,28,28],"right_children":[2,4,6,8,10,12,14,16,18,20,22,24,26,28,30,32,34,36,38,40,42,44,-1,46,-1,48,50,-1,52,-1,-1,-1,-1,-1,-1,-1,-1,-1,-1,-1,-1,-1,-1,-1,-1,-1,-1,-1,-1,-1,-1,-1,-1],"split_conditions":[2.41369E3,2.05563E3,2.958255E3,1.9628795E3,2.4783268E1,2.8569588E1,5.6609783E1,1.6739388E3,-6.680745E0,5.45032E1,6.3701607E1,7.8011475E0,2.564018E3,3.030315E3,2.8312625E3,8.821793E-1,-3.2948937E0,-1.649049E1,3.9213202E0,-3.7441173E0,2.472936E3,2.6006533E1,1.6182765E0,-3.3140426E0,3.139852E0,2.61661E3,4.74918E1,-6.878662E-1,5.370942E1,1.4592896E0,6.323245E0,-3.1775234E0,-1.8334872E0,-2.2096064E0,-1.3334234E0,-2.7120576E0,-1.3452361E0,-7.8583664E-1,-2.925908E-2,1.9270584E-1,8.4307164E-1,1.8584324E0,1.9052038E-1,-5.641907E-1,2.230896E-1,2.0841372E0,1.3257931E0,1.9772424E0,2.1965943E-1,1.9101003E0,3.464388E0,4.673935E0,2.1893947E0],"split_indices":[0,0,0,7,5,5,3,8,6,3,4,6,8,0,8,6,6,4,6,4,7,5,0,5,0,0,3,0,3,0,0,0,0,0,0,0,0,0,0,0,0,0,0,0,0,0,0,0,0,0,0,0,0],"split_type":[0,0,0,0,0,0,0,0,0,0,0,0,0,0,0,0,0,0,0,0,0,0,0,0,0,0,0,0,0,0,0,0,0,0,0,0,0,0,0,0,0,0,0,0,0,0,0,0,0,0,0,0,0],"sum_hessian":[9.64E2,7.33E2,2.31E2,6.24E2,1.09E2,1.54E2,7.7E1,3.46E2,2.78E2,6.7E1,4.2E1,8.1E1,7.3E1,4.1E1,3.6E1,6.1E1,2.85E2,4.4E1,2.34E2,3.9E1,2.8E1,3.8E1,4E0,7E1,1.1E1,1.5E1,5.8E1,1E0,4E1,1E0,3.5E1,3.1E1,3E1,6.9E1,2.16E2,1.1E1,3.3E1,1.83E2,5.1E1,1.2E1,2.7E1,2.2E1,6E0,3E0,3.5E1,2.6E1,4.4E1,1.2E1,3E0,6E0,5.2E1,3.6E1,4E0],"tree_param":{"num_deleted":"0","num_feature":"10","num_nodes":"53","size_leaf_vector":"1"}},{"base_weights":[4.6132913E-1,-1.1064249E1,2.567914E1,-1.4572672E1,-4.2614064E0,1.564954E1,4.3643238E1,-1.7300802E1,-8.90154E0,-5.7906146E0,3.496778E0,9.288724E0,1.9865059E1,3.5986423E1,5.246454E1,-2.3938385E1,-1.5236237E1,-1.034355E1,1.1297607E0,-6.7584987E0,3.2760525E0,1.3720256E1,1.5320009E0,2.9914107E0,1.1479439E1,1.8034979E1,3.4375348E0,2.99981E1,4.3409687E1,3.7882385E1,6.436482E1,-2.5768867E0,-1.5037328E0,-1.9151267E0,-1.2846663E0,-1.1375674E0,4.338026E-1,-1.7655165E-1,2.6622376E0,-9.8482275E-1,-4.971817E-1,5.440796E-2,5.68042E-1,3.64563E-1,1.5006055E0,-2.1490403E-1,4.7189265E-1,6.6526616E-1,-5.504432E-3,1.3590285E0,6.320274E-1,2.036877E0,1.1731658E0,3.581419E0,1.2995139E0,3.2299092E0,5.275458E0,2.3745759E0,4.2306542E0,7.2453713E0,3.3214288E0],"categories":[],"categories_nodes":[],"categories_segments":[],"categories_sizes":[],"default_left":[0,0,0,0,0,0,0,0,0,0,0,0,0,0,0,0,0,0,0,0,0,0,0,0,0,0,0,0,0,0,0,0,0,0,0,0,0,0,0,0,0,0,0,0,0,0,0,0,0,0,0,0,0,0,0,0,0,0,0,0,0],"id":31,"left_children":[1,3,5,7,9,11,13,15,17,19,21,23,25,27,29,31,33,35,37,39,41,43,45,47,49,51,-1,53,55,57,59,-1,-1,-1,-1,-1,-1,-1,-1,-1,-1,-1,-1,-1,-1,-1,-1,-1,-1,-1,-1,-1,-1,-1,-1,-1,-1,-1,-1,-1,-1],"loss_changes":[2.8076125E5,1.5761891E4,5.390933E4,6.6070703E3,2.7133496E3,5.071051E3,5.4066406E3,3.6641719E3,2.0946787E3,1.6894829E3,7.422811E2,1.0693096E3,2.4869766E3,1.4094219E3,5.8912344E3,7.204414E2,1.8776133E3,1.9586514E3,1.4493578E3,9.005386E2,1.21714066E2,2.301709E1,3.9727087E2,2.4575058E2,5.5662695E2,1.3203672E3,0E0,3.1935469E3,8.917578E2,4.9642188E2,3.892836E3,0E0,0E0,0E0,0E0,0E0,0E0,0E0,0E0,0E0,0E0,0E0,0E0,0E0,0E0,0E0,0E0,0E0,0E0,0E0,0E0,0E0,0E0,0E0,0E0,0E0,0E0,0E0,0E0,0E0,0E0],"parents":[2147483647,0,0,1,1,2,2,3,3,4,4,5,5,6,6,7,7,8,8,9,9,10,10,11,11,12,12,13,13,14,14,15,15,16,16,17,17,18,18,19,19,20,20,21,21,22,22,23,23,24,24,25,25,27,27,28,28,29,29,30,30],"right_children":[2,4,6,8,10,12,14,16,18,20,22,24,26,28,30,32,34,36,38,40,42,44,46,48,50,52,-1,54,56,58,60,-1,-1,-1,-1,-1,-1,-1,-1,-1,-1,-1,-1,-1,-1,-1,-1,-1,-1,-1,-1,-1,-1,-1,-1,-1,-1,-1,-1,-1,-1],"split_conditions":[2.3918403E3,1.8914294E3,2.798075E3,7.795397E0,3.9213202E0,2.453725E3,3.4129426E3,1.777622E3,3.3443123E1,2.0046575E3,1.945266E3,4.5497208E1,9.4814415E0,6.7764E1,-5.4211993E0,3.533765E0,-3.6647463E0,1.4604421E1,9.794053E0,4.3076923E1,-1.047994E0,1.94274E3,1.9643759E3,2.279313E3,2.3528227E1,2.664142E3,3.4375348E0,3.5167465E1,6.9987774E0,-1.5124751E1,7.3069305E1,-2.5768867E0,-1.5037328E0,-1.9151267E0,-1.2846663E0,-1.1375674E0,4.338026E-1,-1.7655165E-1,2.6622376E0,-9.8482275E-1,-4.971817E-1,5.440796E-2,5.68042E-1,3.64563E-1,1.5006055E0,-2.1490403E-1,4.7189265E-1,6.6526616E-1,-5.504432E-3,1.3590285E0,6.320274E-1,2.036877E0,1.1731658E0,3.581419E0,1.2995139E0,3.2299092E0,5.275458E0,2.3745759E0,4.2306542E0,7.2453713E0,3.3214288E0],"split_indices":[7,8,0,4,6,0,7,1,4,8,1,3,6,3,6,6,6,6,6,3,6,0,8,8,5,1,0,4,6,6,5,0,0,0,0,0,0,0,0,0,0,0,0,0,0,0,0,0,0,0,0,0,0,0,0,0,0,0,0,0,0],"split_type":[0,0,0,0,0,0,0,0,0,0,0,0,0,0,0,0,0,0,0,0,0,0,0,0,0,0,0,0,0,0,0,0,0,0,0,0,0,0,0,0,0,0,0,0,0,0,0,0,0,0,0,0,0,0,0,0,0,0,0,0,0],"sum_hessian":[9.64E2,6.62E2,3.02E2,4.36E2,2.26E2,1.95E2,1.07E2,2.93E2,1.43E2,1.89E2,3.7E1,7.9E1,1.16E2,6E1,4.7E1,6.7E1,2.26E2,1.25E2,1.8E1,1.71E2,1.8E1,5E0,3.2E1,2.1E1,5.8E1,1.05E2,1.1E1,3.6E1,2.4E1,2.3E1,2.4E1,5.4E1,1.3E1,8.3E1,1.43E2,1.17E2,8E0,1.7E1,1E0,6.1E1,1.1E2,9E0,9E0,1E0,4E0,1.5E1,1.7E1,9E0,1.2E1,4E1,1.8E1,7.5E1,3E1,2.6E1,1E1,1.3E1,1.1E1,7E0,1.6E1,1.8E1,6E0],"tree_param":{"num_deleted":"0","num_feature":"10","num_nodes":"61","size_leaf_vector":"1"}},{"base_weights":[4.521148E-1,-8.48339E0,2.7036139E1,-1.2369806E1,2.860173E-1,1.9118868E1,4.3539097E1,-2.1253853E1,-1.1089849E1,-3.7485807E0,6.636062E0,1.4506595E1,2.4657013E1,3.5226875E1,5.179786E1,-2.6457726E1,-1.5196506E1,-1.228172E1,-3.02819E0,-7.2288747E0,-4.1156265E-1,4.2443566E0,9.906413E0,1.1804447E1,2.2690596E1,1.3092972E1,2.7375107E1,5.04126E0,3.7419582E1,4.2337955E1,6.1567856E1,-3.0204036E0,-1.8658965E0,-1.6824111E0,-3.36814E-1,-1.3733205E0,-8.554554E-1,-4.6719113E-1,1.5329639E0,-1.4125432E0,-5.140625E-1,5.0266904E-1,-1.7171483E-1,5.88263E-1,5.25405E-2,1.136084E0,-4.569214E-1,1.879245E0,9.635806E-1,1.3867118E0,2.5132706E0,1.5959305E0,5.041504E-2,2.0920234E0,3.0391743E0,-7.184448E-1,1.1511312E0,3.9351158E0,1.6414648E0,5.8964357E0,2.862542E0,3.2683206E0,6.8472476E0],"categories":[],"categories_nodes":[],"categories_segments":[],"categories_sizes":[],"default_left":[0,0,0,0,0,0,0,0,0,0,0,0,0,0,0,0,0,0,0,0,0,0,0,0,0,0,0,0,0,0,0,0,0,0,0,0,0,0,0,0,0,0,0,0,0,0,0,0,0,0,0,0,0,0,0,0,0,0,0,0,0,0,0],"id":32,"left_children":[1,3,5,7,9,11,13,15,17,19,21,23,25,27,29,31,33,35,37,39,41,43,45,47,49,51,53,55,57,59,61,-1,-1,-1,-1,-1,-1,-1,-1,-1,-1,-1,-1,-1,-1,-1,-1,-1,-1,-1,-1,-1,-1,-1,-1,-1,-1,-1,-1,-1,-1,-1,-1],"loss_changes":[2.2945708E5,2.4644508E4,3.0917578E4,5.4612656E3,5.7381084E3,3.8825195E3,3.5299062E3,1.5522793E3,4.1905273E3,1.5881162E3,6.384431E2,1.7887891E3,1.9675625E3,2.5912578E3,8.13E2,3.7135547E2,5.4014307E2,1.9545156E3,1.8217776E3,8.923025E2,5.12739E2,3.1372736E2,8.098447E2,9.10041E2,1.2553613E2,5.692942E2,5.130469E2,3.991063E2,9.3640234E2,3.3279023E3,9.5309766E2,0E0,0E0,0E0,0E0,0E0,0E0,0E0,0E0,0E0,0E0,0E0,0E0,0E0,0E0,0E0,0E0,0E0,0E0,0E0,0E0,0E0,0E0,0E0,0E0,0E0,0E0,0E0,0E0,0E0,0E0,0E0,0E0],"parents":[2147483647,0,0,1,1,2,2,3,3,4,4,5,5,6,6,7,7,8,8,9,9,10,10,11,11,12,12,13,13,14,14,15,15,16,16,17,17,18,18,19,19,20,20,21,21,22,22,23,23,24,24,25,25,26,26,27,27,28,28,29,29,30,30],"right_children":[2,4,6,8,10,12,14,16,18,20,22,24,26,28,30,32,34,36,38,40,42,44,46,48,50,52,54,56,58,60,62,-1,-1,-1,-1,-1,-1,-1,-1,-1,-1,-1,-1,-1,-1,-1,-1,-1,-1,-1,-1,-1,-1,-1,-1,-1,-1,-1,-1,-1,-1,-1,-1],"split_conditions":[2.394965E3,1.9613864E3,2.958255E3,1.6739388E3,2.2361492E3,2.8569588E1,5.6609783E1,8.821793E-1,6.1293764E0,-1.1301079E0,5.043725E-1,5.617734E0,2.564018E3,2.9229817E3,3.24098E3,1.702035E3,1.2373865E1,1.917895E3,3.333017E1,-5.0168843E0,1.945266E3,1.7742147E1,2.472936E3,-6.985808E0,2.7043718E3,2.61661E3,-2.0987794E0,3.030315E3,5.370942E1,2.8784163E3,3.4129426E3,-3.0204036E0,-1.8658965E0,-1.6824111E0,-3.36814E-1,-1.3733205E0,-8.554554E-1,-4.6719113E-1,1.5329639E0,-1.4125432E0,-5.140625E-1,5.0266904E-1,-1.7171483E-1,5.88263E-1,5.25405E-2,1.136084E0,-4.569214E-1,1.879245E0,9.635806E-1,1.3867118E0,2.5132706E0,1.5959305E0,5.041504E-2,2.0920234E0,3.0391743E0,-7.184448E-1,1.1511312E0,3.9351158E0,1.6414648E0,5.8964357E0,2.862542E0,3.2683206E0,6.8472476E0],"split_indices":[0,2,0,8,7,5,3,6,6,6,6,6,8,8,0,0,6,0,4,4,1,4,7,5,7,0,6,0,3,8,7,0,0,0,0,0,0,0,0,0,0,0,0,0,0,0,0,0,0,0,0,0,0,0,0,0,0,0,0,0,0,0,0],"split_type":[0,0,0,0,0,0,0,0,0,0,0,0,0,0,0,0,0,0,0,0,0,0,0,0,0,0,0,0,0,0,0,0,0,0,0,0,0,0,0,0,0,0,0,0,0,0,0,0,0,0,0,0,0,0,0,0,0,0,0,0,0,0,0],"sum_hessian":[9.64E2,7.22E2,2.42E2,5E2,2.22E2,1.65E2,7.7E1,6.1E1,4.39E2,1.36E2,8.6E1,9.2E1,7.3E1,4.1E1,3.6E1,3.1E1,3E1,3.82E2,5.7E1,6.6E1,7E1,5.1E1,3.5E1,7.1E1,2.1E1,1.5E1,5.8E1,3E0,3.8E1,2.1E1,1.5E1,1.9E1,1.2E1,2.6E1,4E0,2.73E2,1.09E2,5.3E1,4E0,1.4E1,5.2E1,1.3E1,5.7E1,3.5E1,1.6E1,3.2E1,3E0,1.5E1,5.6E1,6E0,1.5E1,1.2E1,3E0,2.1E1,3.7E1,1E0,2E0,3.4E1,4E0,8E0,1.3E1,4E0,1.1E1],"tree_param":{"num_deleted":"0","num_feature":"10","num_nodes":"63","size_leaf_vector":"1"}},{"base_weights":[4.3804914E-1,-8.99882E0,2.1085594E1,-1.1850944E1,-3.4685256E0,1.3258616E1,3.6841774E1,-1.4183711E1,-7.005912E0,-7.2441907E0,-1.1999938E0,7.7100005E0,1.6703663E1,3.2575344E1,4.8338047E1,-1.9686821E1,-1.2472718E1,-8.263178E0,1.700478E0,-1.1351349E1,-5.136525E0,-4.5153465E0,7.4411243E-1,4.7013364E0,1.1443959E1,1.5083871E1,2.8468874E0,2.5355175E1,3.912827E1,3.4438557E1,6.2897525E0,-1.4830579E0,-2.2715428E0,-1.9256372E0,-1.1219538E0,-6.834056E-2,-9.949113E-1,8.1416625E-1,-8.1738585E-1,-7.470681E-1,-1.3092238E0,-7.8651583E-1,-3.1187046E-1,1.04325354E-1,-5.5267256E-1,1.1676867E0,-4.503321E-2,6.295611E-1,1.7005334E-2,1.4902449E0,5.839144E-1,7.9014534E-1,1.6198634E0,1.2963074E0,2.7660851E0,3.3400733E0,5.387248E0,3.5820014E0,7.5490725E-1],"categories":[],"categories_nodes":[],"categories_segments":[],"categories_sizes":[],"default_left":[0,0,0,0,0,0,0,0,0,0,0,0,0,0,0,0,0,0,0,0,0,0,0,0,0,0,0,0,0,0,0,0,0,0,0,0,0,0,0,0,0,0,0,0,0,0,0,0,0,0,0,0,0,0,0,0,0,0,0],"id":33,"left_children":[1,3,5,7,9,11,13,15,17,19,21,23,25,27,29,31,33,35,37,39,41,43,45,47,49,51,-1,53,55,57,-1,-1,-1,-1,-1,-1,-1,-1,-1,-1,-1,-1,-1,-1,-1,-1,-1,-1,-1,-1,-1,-1,-1,-1,-1,-1,-1,-1,-1],"loss_changes":[1.8821825E5,1.0416445E4,3.687847E4,4.839754E3,1.9356111E3,3.7707188E3,3.3301719E3,2.5226914E3,1.5903105E3,6.7749756E2,9.250517E2,8.449365E2,1.9527266E3,2.6037031E3,2.8931328E3,6.632383E2,1.7137109E3,1.6033555E3,1.2749949E3,9.135498E1,2.9481262E2,3.0372388E2,1.1935883E3,3.312386E2,5.914287E2,7.687578E2,0E0,7.557461E2,1.4096484E3,2.8679102E2,0E0,0E0,0E0,0E0,0E0,0E0,0E0,0E0,0E0,0E0,0E0,0E0,0E0,0E0,0E0,0E0,0E0,0E0,0E0,0E0,0E0,0E0,0E0,0E0,0E0,0E0,0E0,0E0,0E0],"parents":[2147483647,0,0,1,1,2,2,3,3,4,4,5,5,6,6,7,7,8,8,9,9,10,10,11,11,12,12,13,13,14,14,15,15,16,16,17,17,18,18,19,19,20,20,21,21,22,22,23,23,24,24,25,25,27,27,28,28,29,29],"right_children":[2,4,6,8,10,12,14,16,18,20,22,24,26,28,30,32,34,36,38,40,42,44,46,48,50,52,-1,54,56,58,-1,-1,-1,-1,-1,-1,-1,-1,-1,-1,-1,-1,-1,-1,-1,-1,-1,-1,-1,-1,-1,-1,-1,-1,-1,-1,-1,-1,-1],"split_conditions":[2.3918403E3,1.8914294E3,2.96279E3,7.795397E0,-1.98617E0,2.453725E3,3.261434E3,1.777622E3,3.3443123E1,-2.6237342E0,1.9761445E3,-7.492219E-1,9.40905E0,6.0941242E1,-3.3911207E0,-1.1547578E1,-1.9657225E1,8.379141E0,3.2629417E1,1.948017E3,-5.6306796E0,1.923692E3,2.0004641E3,1.7742147E1,2.472936E3,-8.172356E0,2.8468874E0,4.366942E1,5.631917E1,3.4285833E3,6.2897525E0,-1.4830579E0,-2.2715428E0,-1.9256372E0,-1.1219538E0,-6.834056E-2,-9.949113E-1,8.1416625E-1,-8.1738585E-1,-7.470681E-1,-1.3092238E0,-7.8651583E-1,-3.1187046E-1,1.04325354E-1,-5.5267256E-1,1.1676867E0,-4.503321E-2,6.295611E-1,1.7005334E-2,1.4902449E0,5.839144E-1,7.9014534E-1,1.6198634E0,1.2963074E0,2.7660851E0,3.3400733E0,5.387248E0,3.5820014E0,7.5490725E-1],"split_indices":[7,8,7,4,6,0,1,1,4,4,2,6,6,3,6,5,4,5,5,2,6,1,2,4,7,4,0,3,5,7,0,0,0,0,0,0,0,0,0,0,0,0,0,0,0,0,0,0,0,0,0,0,0,0,0,0,0,0,0],"split_type":[0,0,0,0,0,0,0,0,0,0,0,0,0,0,0,0,0,0,0,0,0,0,0,0,0,0,0,0,0,0,0,0,0,0,0,0,0,0,0,0,0,0,0,0,0,0,0,0,0,0,0,0,0,0,0,0,0,0,